-	V0	V1	V2	V3	V4	V5	V6	V7	V8	V9	V10	V11	V12	V13	V14	V15	V16	V17	V18	V19	V20	V21	V22	V23	V24	V25	V26	V27	V28	V29	V30	V31	V32	V33	V34	V35	V36	V37	V38	V39	V40	V41	V42	V43	V44	V45	V46	V47	V48	V49	V50	V51	V52	V53	V54	V55	V56	V57	V58	V59	V60	V61	V62	V63	V64	V65	V66	V67	V68	V69	V70	V71	V72	V73	V74	V75	V76	V77	V78	V79	V80	V81	V82	V83	V84	V85	V86	V87	V88	V89	V90	V91	V92	V93	V94	V95	V96	V97	V98	V99	V100	V101	V102	V103	V104	V105	V106	V107	V108	V109	V110	V111	V112	V113	V114	V115	V116	V117	V118	V119	V120	V121	V122	V123	V124	V125	V126	V127	V128	V129	V130	V131	V132	V133	V134	V135	V136	V137	V138	V139	V140	V141	V142	V143	V144	V145	V146	V147	V148	V149	V150	V151	V152	V153	V154	V155	V156	V157	V158	V159	V160	V161	V162	V163	V164	V165	V166	V167	V168	V169	V170	V171	V172	V173	V174	V175	V176	V177	V178	V179	V180	V181	V182	V183	V184	V185	V186	V187	V188	V189	V190	V191	V192	V193	V194	V195	V196	V197	V198	V199	V200	V201	V202	V203	V204	V205	V206	V207	V208	V209	V210	V211	V212	V213	V214	V215	V216	V217	V218	V219	V220	V221	V222	V223	V224	V225	V226	V227	V228	V229	V230	V231	V232	V233	V234	V235	V236	V237	V238	V239	V240	V241	V242	V243	V244	V245	V246	V247	V248	V249
ENSG00000117362	0.0	0.0	0.0	0.0	0.0	0.0	0.0	0.16681793624801777	0.0	0.0	0.0	0.0	0.0	0.0	0.0	0.015816813898643756	0.0	0.0	0.0	0.3191947875657222	0.0	0.0	0.0	0.0	0.0	0.0	0.0	0.0	0.0	0.0	-0.0	0.0	0.0	0.0	0.0	0.0	0.06637072603824816	0.23901789085088496	0.0	0.0	0.0	0.0	0.0	0.0	0.0	0.0	0.0	0.0	0.0	-0.2663530667068258	0.0	0.0	0.0	0.0	0.0	0.0	0.0	0.0	0.0	0.0	0.0	-0.0	0.0	0.0	0.0	0.0	0.0	0.0	0.0	0.0	0.0	0.0	0.0	0.0	0.0	0.0	0.0	0.0	0.0	0.0	0.0	0.01957497502390496	0.0	0.0	-0.15952856951253705	0.0	0.0	0.0	0.0	0.0	0.0	0.0	0.0	0.0	0.0	-0.0	0.0	0.0	0.0	-0.0	0.0	0.0	0.0	0.030019214596311922	0.0	0.0	0.0	0.0	0.0	0.0	0.0	-0.30339177444105503	0.0	0.0	-0.0	-0.0	0.0	0.0	0.0	0.0	-0.0	0.0	0.0	0.0	0.0	0.0	0.0	0.0	0.0	0.0	0.02782134438359229	0.0	0.0	0.0	0.0	0.0	0.7823512358488612	0.0	0.0	0.0	0.0	0.0	0.0	0.0	0.0	0.0	0.0	0.0	0.0	0.0	0.0	0.0	-0.008902513888484209	0.0	0.06706354463796618	0.0	0.0	0.0	0.0	0.0	0.0	-0.0	0.0	0.0	0.009432673809165211	0.0	0.0	-0.0056072635510625675	0.0	0.0	0.0	0.0	0.0	0.0	0.0	0.0	0.0	0.0	0.0	0.0	0.0	0.0	0.0	0.0	0.0	-0.0	0.0	0.0	0.0	0.0	0.0	0.0	0.0	0.0	0.03152863313986901	0.0	-0.006387838674354691	0.0	0.0	0.0	0.0	0.0	0.0	0.0	0.0	0.0	-0.0	0.0	0.0	-0.0	0.0	0.0	0.0	-0.01273573523474506	0.0	0.0	0.0	-0.0	0.0	0.0	0.0	0.0	0.0	0.0	0.0	0.0	0.0	-0.0	0.0	0.0	-9.260063293604299E-4	0.0	0.0	-0.0055356785903232005	0.0	0.0	0.0	0.0	-8.891079056040261E-5	0.002050162110306442	-0.0	0.0	0.0	0.0	0.0	-0.0	0.0	0.0	0.0	0.0
ENSG00000117360	0.0	0.0	0.0	0.0	0.0	0.0	0.0	0.2024575178108219	0.0	0.0	0.0	0.0	0.0	0.0	0.0	0.017025173905146792	0.0	0.0	0.0	0.36296995797501597	0.0	0.0	0.0	0.0	0.0	0.0	0.0	0.0	0.0	0.0	-0.0	0.0	0.0	0.0	0.0	0.0	0.06345204620414073	0.22252630910454665	0.0	0.0	0.0	0.0	0.0	0.0	0.0	0.0	0.0	0.0	0.0	-0.23650049875371307	0.0	0.0	0.0	0.0	0.0	0.0	0.0	0.0	0.0	0.0	0.0	-0.0	0.0	0.0	0.0	0.0	0.0	0.0	0.0	0.0	0.0	0.0	0.0	0.0	0.0	0.0	0.0	0.0	0.0	0.0	0.0	0.006283649327822624	0.0	0.0	-0.13093604713160276	0.0	0.0	0.0	0.0	0.0	0.0	0.0	0.0	0.0	0.0	-0.0	0.0	0.0	0.0	-0.0	0.0	0.0	0.0	-4.3315012204553485E-4	0.0	0.0	0.0	0.0	0.0	0.0	0.0	-0.14916733918327452	0.0	0.0	-0.0	-0.0	0.0	0.0	0.0	0.0	-0.0	0.0	0.0	0.0	0.0	0.0	0.0	0.0	0.0	0.0	-0.007000258942135927	0.0	0.0	0.0	0.0	0.0	-0.41027970080690906	0.0	0.0	0.0	0.0	0.0	0.0	0.0	0.0	0.0	0.0	0.0	0.0	0.0	0.0	0.0	-0.012493703118549446	0.0	-0.18537357481507896	0.0	0.0	0.0	0.0	0.0	0.0	-0.0	0.0	0.0	0.001355502358490838	0.0	0.0	0.011133047790793863	0.0	0.0	0.0	0.0	0.0	0.0	0.0	0.0	0.0	0.0	0.0	0.0	0.0	0.0	0.0	0.0	0.0	-0.0	0.0	0.0	0.0	0.0	0.0	0.0	0.0	0.0	0.05253785671621346	0.0	0.6858684542593274	0.0	0.0	0.0	0.0	0.0	0.0	0.0	0.0	0.0	-0.0	0.0	0.0	-0.0	0.0	0.0	0.0	0.03221011676000726	0.0	0.0	0.0	-0.0	0.0	0.0	0.0	0.0	0.0	0.0	0.0	0.0	0.0	-0.0	0.0	0.0	-0.02024701566211533	0.0	0.0	-0.01990634335151081	0.0	0.0	0.0	0.0	-0.0029431502370655333	0.0032696297735175838	-0.0	0.0	0.0	0.0	0.0	-0.0	0.0	0.0	0.0	0.0
ENSG00000163125	0.0	0.0	0.0	0.0	0.0	0.0	0.0	0.20740929603554034	0.0	0.0	0.0	0.0	0.0	0.0	0.0	0.014844030695675307	0.0	0.0	0.0	0.36668532087081906	0.0	0.0	0.0	0.0	0.0	0.0	0.0	0.0	0.0	0.0	-0.0	0.0	0.0	0.0	0.0	0.0	0.06740610813146433	0.22345369219496877	0.0	0.0	0.0	0.0	0.0	0.0	0.0	0.0	0.0	0.0	0.0	-0.22505392776086072	0.0	0.0	0.0	0.0	0.0	0.0	0.0	0.0	0.0	0.0	0.0	-0.0	0.0	0.0	0.0	0.0	0.0	0.0	0.0	0.0	0.0	0.0	0.0	0.0	0.0	0.0	0.0	0.0	0.0	0.0	0.0	0.008263771562051601	0.0	0.0	-0.10613210673882036	0.0	0.0	0.0	0.0	0.0	0.0	0.0	0.0	0.0	0.0	-0.0	0.0	0.0	0.0	-0.0	0.0	0.0	0.0	0.00584967247607381	0.0	0.0	0.0	0.0	0.0	0.0	0.0	-0.1013622685934402	0.0	0.0	-0.0	-0.0	0.0	0.0	0.0	0.0	-0.0	0.0	0.0	0.0	0.0	0.0	0.0	0.0	0.0	0.0	-0.008844175264071108	0.0	0.0	0.0	0.0	0.0	-0.40441986875332586	0.0	0.0	0.0	0.0	0.0	0.0	0.0	0.0	0.0	0.0	0.0	0.0	0.0	0.0	0.0	-0.027894402976240486	0.0	-0.07219006448705254	0.0	0.0	0.0	0.0	0.0	0.0	-0.0	0.0	0.0	-0.0010750030653777585	0.0	0.0	0.0025601804245254907	0.0	0.0	0.0	0.0	0.0	0.0	0.0	0.0	0.0	0.0	0.0	0.0	0.0	0.0	0.0	0.0	0.0	-0.0	0.0	0.0	0.0	0.0	0.0	0.0	0.0	0.0	-0.055829072864683665	0.0	-0.7152214941785479	0.0	0.0	0.0	0.0	0.0	0.0	0.0	0.0	0.0	-0.0	0.0	0.0	-0.0	0.0	0.0	0.0	-0.010657230836881375	0.0	0.0	0.0	-0.0	0.0	0.0	0.0	0.0	0.0	0.0	0.0	0.0	0.0	-0.0	0.0	0.0	-0.01995902427658066	0.0	0.0	-0.10344124983184604	0.0	0.0	0.0	0.0	0.005997607665418841	3.589396859686602E-4	-0.0	0.0	0.0	0.0	0.0	-0.0	0.0	0.0	0.0	0.0
ENSG00000143382	0.0	0.0	0.0	0.0	0.0	0.0	0.0	0.26600099867188354	0.0	0.0	0.0	0.0	0.0	0.0	0.0	0.016176998012834145	0.0	0.0	0.0	0.354449401774199	0.0	0.0	0.0	0.0	0.0	0.0	0.0	0.0	0.0	0.0	-0.0	0.0	0.0	0.0	0.0	0.0	0.0013931538431711367	0.005884327074657484	0.0	0.0	0.0	0.0	0.0	0.0	0.0	0.0	0.0	0.0	0.0	0.12072632399549653	0.0	0.0	0.0	0.0	0.0	0.0	0.0	0.0	0.0	0.0	0.0	-0.0	0.0	0.0	0.0	0.0	0.0	0.0	0.0	0.0	0.0	0.0	0.0	0.0	0.0	0.0	0.0	0.0	0.0	0.0	0.0	-0.007338281888493487	0.0	0.0	0.2002767663074722	0.0	0.0	0.0	0.0	0.0	0.0	0.0	0.0	0.0	0.0	-0.0	0.0	0.0	0.0	-0.0	0.0	0.0	0.0	-0.028843368167095977	0.0	0.0	0.0	0.0	0.0	0.0	0.0	0.39164389043145126	0.0	0.0	-0.0	-0.0	0.0	0.0	0.0	0.0	-0.0	0.0	0.0	0.0	0.0	0.0	0.0	0.0	0.0	0.0	-0.011614201371702198	0.0	0.0	0.0	0.0	0.0	0.019624089655701418	0.0	0.0	0.0	0.0	0.0	0.0	0.0	0.0	0.0	0.0	0.0	0.0	0.0	0.0	0.0	0.03797635970965393	0.0	0.21684198987269915	0.0	0.0	0.0	0.0	0.0	0.0	-0.0	0.0	0.0	-0.006192334684411309	0.0	0.0	-0.002943473018645812	0.0	0.0	0.0	0.0	0.0	0.0	0.0	0.0	0.0	0.0	0.0	0.0	0.0	0.0	0.0	0.0	0.0	-0.0	0.0	0.0	0.0	0.0	0.0	0.0	0.0	0.0	-0.02393192697535359	0.0	-0.0023533938522954496	0.0	0.0	0.0	0.0	0.0	0.0	0.0	0.0	0.0	-0.0	0.0	0.0	-0.0	0.0	0.0	0.0	-0.026251363539400534	0.0	0.0	0.0	-0.0	0.0	0.0	0.0	0.0	0.0	0.0	0.0	0.0	0.0	-0.0	0.0	0.0	0.22569681022524204	0.0	0.0	0.7020720781816245	0.0	0.0	0.0	0.0	-0.009655542695635434	-0.010951020963923282	-0.0	0.0	0.0	0.0	0.0	-0.0	0.0	0.0	0.0	0.0
ENSG00000203804	0.0	0.0	0.0	0.0	0.0	0.0	0.0	0.26116642103725857	0.0	0.0	0.0	0.0	0.0	0.0	0.0	0.015210129912906278	0.0	0.0	0.0	0.3236897131324588	0.0	0.0	0.0	0.0	0.0	0.0	0.0	0.0	0.0	0.0	-0.0	0.0	0.0	0.0	0.0	0.0	-0.014126173579976796	-0.04673985713042739	0.0	0.0	0.0	0.0	0.0	0.0	0.0	0.0	0.0	0.0	0.0	0.19466493605234075	0.0	0.0	0.0	0.0	0.0	0.0	0.0	0.0	0.0	0.0	0.0	-0.0	0.0	0.0	0.0	0.0	0.0	0.0	0.0	0.0	0.0	0.0	0.0	0.0	0.0	0.0	0.0	0.0	0.0	0.0	0.0	-0.007270757029638781	0.0	0.0	0.25315443711790536	0.0	0.0	0.0	0.0	0.0	0.0	0.0	0.0	0.0	0.0	-0.0	0.0	0.0	0.0	-0.0	0.0	0.0	0.0	-0.030992448826767587	0.0	0.0	0.0	0.0	0.0	0.0	0.0	0.44852815542748836	0.0	0.0	-0.0	-0.0	0.0	0.0	0.0	0.0	-0.0	0.0	0.0	0.0	0.0	0.0	0.0	0.0	0.0	0.0	-0.0069732578828817175	0.0	0.0	0.0	0.0	0.0	0.09618388244257044	0.0	0.0	0.0	0.0	0.0	0.0	0.0	0.0	0.0	0.0	0.0	0.0	0.0	0.0	0.0	0.028632390167215815	0.0	0.24608727242138506	0.0	0.0	0.0	0.0	0.0	0.0	-0.0	0.0	0.0	-4.207539103269945E-4	0.0	0.0	-0.008333107015461257	0.0	0.0	0.0	0.0	0.0	0.0	0.0	0.0	0.0	0.0	0.0	0.0	0.0	0.0	0.0	0.0	0.0	-0.0	0.0	0.0	0.0	0.0	0.0	0.0	0.0	0.0	0.001414371520216327	0.0	0.08019892824904819	0.0	0.0	0.0	0.0	0.0	0.0	0.0	0.0	0.0	-0.0	0.0	0.0	-0.0	0.0	0.0	0.0	0.018662871560459652	0.0	0.0	0.0	-0.0	0.0	0.0	0.0	0.0	0.0	0.0	0.0	0.0	0.0	-0.0	0.0	0.0	-0.19318754617966405	0.0	0.0	-0.6365149936666307	0.0	0.0	0.0	0.0	0.008401953153608125	0.012457074859378421	-0.0	0.0	0.0	0.0	0.0	-0.0	0.0	0.0	0.0	0.0
ENSG00000143457	0.0	0.0	0.0	0.0	0.0	0.0	0.0	0.2501122198335425	0.0	0.0	0.0	0.0	0.0	0.0	0.0	0.007209128352711304	0.0	0.0	0.0	0.17039627943290844	0.0	0.0	0.0	0.0	0.0	0.0	0.0	0.0	0.0	0.0	-0.0	0.0	0.0	0.0	0.0	0.0	-0.07900602673101365	-0.2510427368684337	0.0	0.0	0.0	0.0	0.0	0.0	0.0	0.0	0.0	0.0	0.0	0.3919021332811759	0.0	0.0	0.0	0.0	0.0	0.0	0.0	0.0	0.0	0.0	0.0	-0.0	0.0	0.0	0.0	0.0	0.0	0.0	0.0	0.0	0.0	0.0	0.0	0.0	0.0	0.0	0.0	0.0	0.0	0.0	0.0	-0.017381916127254402	0.0	0.0	0.17520855596060975	0.0	0.0	0.0	0.0	0.0	0.0	0.0	0.0	0.0	0.0	-0.0	0.0	0.0	0.0	-0.0	0.0	0.0	0.0	0.01551874561652035	0.0	0.0	0.0	0.0	0.0	0.0	0.0	-0.13305014090385142	0.0	0.0	-0.0	-0.0	0.0	0.0	0.0	0.0	-0.0	0.0	0.0	0.0	0.0	0.0	0.0	0.0	0.0	0.0	0.004543701546459772	0.0	0.0	0.0	0.0	0.0	0.14230334173274084	0.0	0.0	0.0	0.0	0.0	0.0	0.0	0.0	0.0	0.0	0.0	0.0	0.0	0.0	0.0	0.00792457379909791	0.0	-0.7793258770078947	0.0	0.0	0.0	0.0	0.0	0.0	-0.0	0.0	0.0	-0.013494852643114596	0.0	0.0	0.023286826694815077	0.0	0.0	0.0	0.0	0.0	0.0	0.0	0.0	0.0	0.0	0.0	0.0	0.0	0.0	0.0	0.0	0.0	-0.0	0.0	0.0	0.0	0.0	0.0	0.0	0.0	0.0	0.0564382005543528	0.0	-0.06554092315116958	0.0	0.0	0.0	0.0	0.0	0.0	0.0	0.0	0.0	-0.0	0.0	0.0	-0.0	0.0	0.0	0.0	0.005821531740855258	0.0	0.0	0.0	-0.0	0.0	0.0	0.0	0.0	0.0	0.0	0.0	0.0	0.0	-0.0	0.0	0.0	-0.010270913440230045	0.0	0.0	0.020007802105668705	0.0	0.0	0.0	0.0	2.8854369357952676E-4	-0.011594301663603309	-0.0	0.0	0.0	0.0	0.0	-0.0	0.0	0.0	0.0	0.0
ENSG00000143387	0.0	0.0	0.0	0.0	0.0	0.0	0.0	0.23009267014589957	0.0	0.0	0.0	0.0	0.0	0.0	0.0	0.00634802033050472	0.0	0.0	0.0	0.10162002426410185	0.0	0.0	0.0	0.0	0.0	0.0	0.0	0.0	0.0	0.0	-0.0	0.0	0.0	0.0	0.0	0.0	-0.09779683831676324	-0.3192560233171585	0.0	0.0	0.0	0.0	0.0	0.0	0.0	0.0	0.0	0.0	0.0	0.36720188965808703	0.0	0.0	0.0	0.0	0.0	0.0	0.0	0.0	0.0	0.0	0.0	-0.0	0.0	0.0	0.0	0.0	0.0	0.0	0.0	0.0	0.0	0.0	0.0	0.0	0.0	0.0	0.0	0.0	0.0	0.0	0.0	0.0012547685487709472	0.0	0.0	-0.06586851909402855	0.0	0.0	0.0	0.0	0.0	0.0	0.0	0.0	0.0	0.0	-0.0	0.0	0.0	0.0	-0.0	0.0	0.0	0.0	0.04892084128732668	0.0	0.0	0.0	0.0	0.0	0.0	0.0	-0.5384568617881605	0.0	0.0	-0.0	-0.0	0.0	0.0	0.0	0.0	-0.0	0.0	0.0	0.0	0.0	0.0	0.0	0.0	0.0	0.0	0.03522550175975791	0.0	0.0	0.0	0.0	0.0	-0.13263097838190768	0.0	0.0	0.0	0.0	0.0	0.0	0.0	0.0	0.0	0.0	0.0	0.0	0.0	0.0	0.0	-0.40179675500175643	0.0	0.4486495389162859	0.0	0.0	0.0	0.0	0.0	0.0	-0.0	0.0	0.0	0.037146904118426256	0.0	0.0	-0.016148979129556165	0.0	0.0	0.0	0.0	0.0	0.0	0.0	0.0	0.0	0.0	0.0	0.0	0.0	0.0	0.0	0.0	0.0	-0.0	0.0	0.0	0.0	0.0	0.0	0.0	0.0	0.0	0.09459969540445297	0.0	0.016475039546541205	0.0	0.0	0.0	0.0	0.0	0.0	0.0	0.0	0.0	-0.0	0.0	0.0	-0.0	0.0	0.0	0.0	-0.01812368519494537	0.0	0.0	0.0	-0.0	0.0	0.0	0.0	0.0	0.0	0.0	0.0	0.0	0.0	-0.0	0.0	0.0	-0.020888524932961946	0.0	0.0	0.01911842223624278	0.0	0.0	0.0	0.0	-7.389921238351155E-4	-0.012015751101232965	-0.0	0.0	0.0	0.0	0.0	-0.0	0.0	0.0	0.0	0.0
ENSG00000143409	0.0	0.0	0.0	0.0	0.0	0.0	0.0	0.3116560828341689	0.0	0.0	0.0	0.0	0.0	0.0	0.0	-0.007603143353400995	0.0	0.0	0.0	-0.07800695894113949	0.0	0.0	0.0	0.0	0.0	0.0	0.0	0.0	0.0	0.0	-0.0	0.0	0.0	0.0	0.0	0.0	-0.10287570588848527	-0.3333596998874998	0.0	0.0	0.0	0.0	0.0	0.0	0.0	0.0	0.0	0.0	0.0	-0.04965586918760051	0.0	0.0	0.0	0.0	0.0	0.0	0.0	0.0	0.0	0.0	0.0	-0.0	0.0	0.0	0.0	0.0	0.0	0.0	0.0	0.0	0.0	0.0	0.0	0.0	0.0	0.0	0.0	0.0	0.0	0.0	0.0	3.362084140371682E-4	0.0	0.0	-0.35598213304911563	0.0	0.0	0.0	0.0	0.0	0.0	0.0	0.0	0.0	0.0	-0.0	0.0	0.0	0.0	-0.0	0.0	0.0	0.0	0.0030941792861969184	0.0	0.0	0.0	0.0	0.0	0.0	0.0	-0.03092638677470365	0.0	0.0	-0.0	-0.0	0.0	0.0	0.0	0.0	-0.0	0.0	0.0	0.0	0.0	0.0	0.0	0.0	0.0	0.0	-0.010334802408002768	0.0	0.0	0.0	0.0	0.0	-0.016068718993289134	0.0	0.0	0.0	0.0	0.0	0.0	0.0	0.0	0.0	0.0	0.0	0.0	0.0	0.0	0.0	0.49017278776212697	0.0	0.07219333027311853	0.0	0.0	0.0	0.0	0.0	0.0	-0.0	0.0	0.0	-0.02246836256484718	0.0	0.0	0.002947331430920154	0.0	0.0	0.0	0.0	0.0	0.0	0.0	0.0	0.0	0.0	0.0	0.0	0.0	0.0	0.0	0.0	0.0	-0.0	0.0	0.0	0.0	0.0	0.0	0.0	0.0	0.0	-0.22958063281699434	0.0	0.019551146005291644	0.0	0.0	0.0	0.0	0.0	0.0	0.0	0.0	0.0	-0.0	0.0	0.0	-0.0	0.0	0.0	0.0	0.054730851313078324	0.0	0.0	0.0	-0.0	0.0	0.0	0.0	0.0	0.0	0.0	0.0	0.0	0.0	-0.0	0.0	0.0	0.5454838559684038	0.0	0.0	-0.17588813516347623	0.0	0.0	0.0	0.0	0.008817894931317622	0.11768009968064522	-0.0	0.0	0.0	0.0	0.0	-0.0	0.0	0.0	0.0	0.0
ENSG00000143363	0.0	0.0	0.0	0.0	0.0	0.0	0.0	0.33923419909109365	0.0	0.0	0.0	0.0	0.0	0.0	0.0	-0.011540185643539286	0.0	0.0	0.0	-0.1553183876773373	0.0	0.0	0.0	0.0	0.0	0.0	0.0	0.0	0.0	0.0	-0.0	0.0	0.0	0.0	0.0	0.0	-0.07702660397177837	-0.2519840803066724	0.0	0.0	0.0	0.0	0.0	0.0	0.0	0.0	0.0	0.0	0.0	-0.16195396734748785	0.0	0.0	0.0	0.0	0.0	0.0	0.0	0.0	0.0	0.0	0.0	-0.0	0.0	0.0	0.0	0.0	0.0	0.0	0.0	0.0	0.0	0.0	0.0	0.0	0.0	0.0	0.0	0.0	0.0	0.0	0.0	0.0011144423183284595	0.0	0.0	-0.2077326894239717	0.0	0.0	0.0	0.0	0.0	0.0	0.0	0.0	0.0	0.0	-0.0	0.0	0.0	0.0	-0.0	0.0	0.0	0.0	-0.005756600985247765	0.0	0.0	0.0	0.0	0.0	0.0	0.0	0.03776404877371447	0.0	0.0	-0.0	-0.0	0.0	0.0	0.0	0.0	-0.0	0.0	0.0	0.0	0.0	0.0	0.0	0.0	0.0	0.0	-0.010466053821208769	0.0	0.0	0.0	0.0	0.0	1.7454606219627312E-4	0.0	0.0	0.0	0.0	0.0	0.0	0.0	0.0	0.0	0.0	0.0	0.0	0.0	0.0	0.0	0.26267165013552823	0.0	0.03803254772415045	0.0	0.0	0.0	0.0	0.0	0.0	-0.0	0.0	0.0	-0.010904801582821136	0.0	0.0	-6.838700435571776E-4	0.0	0.0	0.0	0.0	0.0	0.0	0.0	0.0	0.0	0.0	0.0	0.0	0.0	0.0	0.0	0.0	0.0	-0.0	0.0	0.0	0.0	0.0	0.0	0.0	0.0	0.0	-0.1606248520402929	0.0	-0.004941780718629843	0.0	0.0	0.0	0.0	0.0	0.0	0.0	0.0	0.0	-0.0	0.0	0.0	-0.0	0.0	0.0	0.0	0.02480624949230243	0.0	0.0	0.0	-0.0	0.0	0.0	0.0	0.0	0.0	0.0	0.0	0.0	0.0	-0.0	0.0	0.0	-0.7493628682052534	0.0	0.0	0.22662790404060643	0.0	0.0	0.0	0.0	-0.009135661378614204	-0.10144620904669906	-0.0	0.0	0.0	0.0	0.0	-0.0	0.0	0.0	0.0	0.0
ENSG00000163141	0.0	0.0	0.0	0.0	0.0	0.0	0.0	0.3162700935500989	0.0	0.0	0.0	0.0	0.0	0.0	0.0	-0.01900260882244873	0.0	0.0	0.0	-0.24128977593464968	0.0	0.0	0.0	0.0	0.0	0.0	0.0	0.0	0.0	0.0	-0.0	0.0	0.0	0.0	0.0	0.0	-0.033401717922754676	-0.11470044341959092	0.0	0.0	0.0	0.0	0.0	0.0	0.0	0.0	0.0	0.0	0.0	-0.28995309694493193	0.0	0.0	0.0	0.0	0.0	0.0	0.0	0.0	0.0	0.0	0.0	-0.0	0.0	0.0	0.0	0.0	0.0	0.0	0.0	0.0	0.0	0.0	0.0	0.0	0.0	0.0	0.0	0.0	0.0	0.0	0.0	-0.002801342143635666	0.0	0.0	-0.05143687788520235	0.0	0.0	0.0	0.0	0.0	0.0	0.0	0.0	0.0	0.0	-0.0	0.0	0.0	0.0	-0.0	0.0	0.0	0.0	-0.02612156651832184	0.0	0.0	0.0	0.0	0.0	0.0	0.0	0.19347531160682258	0.0	0.0	-0.0	-0.0	0.0	0.0	0.0	0.0	-0.0	0.0	0.0	0.0	0.0	0.0	0.0	0.0	0.0	0.0	-0.007634803450159822	0.0	0.0	0.0	0.0	0.0	0.02566351094580989	0.0	0.0	0.0	0.0	0.0	0.0	0.0	0.0	0.0	0.0	0.0	0.0	0.0	0.0	0.0	-0.3037292066816923	0.0	-0.07230113617206216	0.0	0.0	0.0	0.0	0.0	0.0	-0.0	0.0	0.0	0.010926553677019488	0.0	0.0	-0.005680669100424185	0.0	0.0	0.0	0.0	0.0	0.0	0.0	0.0	0.0	0.0	0.0	0.0	0.0	0.0	0.0	0.0	0.0	-0.0	0.0	0.0	0.0	0.0	0.0	0.0	0.0	0.0	0.3167994206972719	0.0	-0.013902272338822925	0.0	0.0	0.0	0.0	0.0	0.0	0.0	0.0	0.0	-0.0	0.0	0.0	-0.0	0.0	0.0	0.0	-0.11819370248987245	0.0	0.0	0.0	-0.0	0.0	0.0	0.0	0.0	0.0	0.0	0.0	0.0	0.0	-0.0	0.0	0.0	0.20797894632624467	0.0	0.0	-0.07397176138895699	0.0	0.0	0.0	0.0	-0.002677129819530808	-0.6638309247111875	-0.0	0.0	0.0	0.0	0.0	-0.0	0.0	0.0	0.0	0.0
ENSG00000143443	0.0	0.0	0.0	0.0	0.0	0.0	0.0	0.3169138493358584	0.0	0.0	0.0	0.0	0.0	0.0	0.0	-0.01883439602937766	0.0	0.0	0.0	-0.25185986561792245	0.0	0.0	0.0	0.0	0.0	0.0	0.0	0.0	0.0	0.0	-0.0	0.0	0.0	0.0	0.0	0.0	-0.024131087299768907	-0.08535777438571912	0.0	0.0	0.0	0.0	0.0	0.0	0.0	0.0	0.0	0.0	0.0	-0.28557616184428397	0.0	0.0	0.0	0.0	0.0	0.0	0.0	0.0	0.0	0.0	0.0	-0.0	0.0	0.0	0.0	0.0	0.0	0.0	0.0	0.0	0.0	0.0	0.0	0.0	0.0	0.0	0.0	0.0	0.0	0.0	0.0	-0.003272620553172796	0.0	0.0	0.03274965187852295	0.0	0.0	0.0	0.0	0.0	0.0	0.0	0.0	0.0	0.0	-0.0	0.0	0.0	0.0	-0.0	0.0	0.0	0.0	-0.02185019353992855	0.0	0.0	0.0	0.0	0.0	0.0	0.0	0.16071033934180312	0.0	0.0	-0.0	-0.0	0.0	0.0	0.0	0.0	-0.0	0.0	0.0	0.0	0.0	0.0	0.0	0.0	0.0	0.0	-0.006564016309864912	0.0	0.0	0.0	0.0	0.0	0.026788559719193344	0.0	0.0	0.0	0.0	0.0	0.0	0.0	0.0	0.0	0.0	0.0	0.0	0.0	0.0	0.0	-0.3503825349384989	0.0	-0.07748618651601044	0.0	0.0	0.0	0.0	0.0	0.0	-0.0	0.0	0.0	0.01220363297524018	0.0	0.0	-0.005703451064663377	0.0	0.0	0.0	0.0	0.0	0.0	0.0	0.0	0.0	0.0	0.0	0.0	0.0	0.0	0.0	0.0	0.0	-0.0	0.0	0.0	0.0	0.0	0.0	0.0	0.0	0.0	0.25196014981075554	0.0	-0.019742933782822155	0.0	0.0	0.0	0.0	0.0	0.0	0.0	0.0	0.0	-0.0	0.0	0.0	-0.0	0.0	0.0	0.0	-0.012506482560103772	0.0	0.0	0.0	-0.0	0.0	0.0	0.0	0.0	0.0	0.0	0.0	0.0	0.0	-0.0	0.0	0.0	0.013251206433894469	0.0	0.0	0.014737813601896806	0.0	0.0	0.0	0.0	0.005090770621272671	0.7244335450977359	-0.0	0.0	0.0	0.0	0.0	-0.0	0.0	0.0	0.0	0.0
ENSG00000143458	0.0	0.0	0.0	0.0	0.0	0.0	0.0	0.2735420001510673	0.0	0.0	0.0	0.0	0.0	0.0	0.0	-0.01906496492769907	0.0	0.0	0.0	-0.2561908562665296	0.0	0.0	0.0	0.0	0.0	0.0	0.0	0.0	0.0	0.0	-0.0	0.0	0.0	0.0	0.0	0.0	0.052080315911182395	0.1631312726453053	0.0	0.0	0.0	0.0	0.0	0.0	0.0	0.0	0.0	0.0	0.0	-0.13042575451905808	0.0	0.0	0.0	0.0	0.0	0.0	0.0	0.0	0.0	0.0	0.0	-0.0	0.0	0.0	0.0	0.0	0.0	0.0	0.0	0.0	0.0	0.0	0.0	0.0	0.0	0.0	0.0	0.0	0.0	0.0	0.0	0.008729868343690444	0.0	0.0	0.4874470457539627	0.0	0.0	0.0	0.0	0.0	0.0	0.0	0.0	0.0	0.0	-0.0	0.0	0.0	0.0	-0.0	0.0	0.0	0.0	0.0236487811812107	0.0	0.0	0.0	0.0	0.0	0.0	0.0	-0.1731879606257857	0.0	0.0	-0.0	-0.0	0.0	0.0	0.0	0.0	-0.0	0.0	0.0	0.0	0.0	0.0	0.0	0.0	0.0	0.0	0.010462616308817908	0.0	0.0	0.0	0.0	0.0	0.0076077303800698715	0.0	0.0	0.0	0.0	0.0	0.0	0.0	0.0	0.0	0.0	0.0	0.0	0.0	0.0	0.0	-0.18236128062670476	0.0	-0.0018233226070958398	0.0	0.0	0.0	0.0	0.0	0.0	-0.0	0.0	0.0	0.01615902741106371	0.0	0.0	0.0019128586242817174	0.0	0.0	0.0	0.0	0.0	0.0	0.0	0.0	0.0	0.0	0.0	0.0	0.0	0.0	0.0	0.0	0.0	-0.0	0.0	0.0	0.0	0.0	0.0	0.0	0.0	0.0	-0.6418085966869858	0.0	0.04671595870307861	0.0	0.0	0.0	0.0	0.0	0.0	0.0	0.0	0.0	-0.0	0.0	0.0	-0.0	0.0	0.0	0.0	0.28580551983446256	0.0	0.0	0.0	-0.0	0.0	0.0	0.0	0.0	0.0	0.0	0.0	0.0	0.0	-0.0	0.0	0.0	0.08743321969268111	0.0	0.0	-0.02416187667612251	0.0	0.0	0.0	0.0	0.0012650351653043777	-0.08307729215362211	-0.0	0.0	0.0	0.0	0.0	-0.0	0.0	0.0	0.0	0.0
ENSG00000163154	0.0	0.0	0.0	0.0	0.0	0.0	0.0	0.2613578340117138	0.0	0.0	0.0	0.0	0.0	0.0	0.0	-0.02107990210715175	0.0	0.0	0.0	-0.2503615620025757	0.0	0.0	0.0	0.0	0.0	0.0	0.0	0.0	0.0	0.0	-0.0	0.0	0.0	0.0	0.0	0.0	0.09471385636373696	0.29605020552434524	0.0	0.0	0.0	0.0	0.0	0.0	0.0	0.0	0.0	0.0	0.0	0.10264361122129999	0.0	0.0	0.0	0.0	0.0	0.0	0.0	0.0	0.0	0.0	0.0	-0.0	0.0	0.0	0.0	0.0	0.0	0.0	0.0	0.0	0.0	0.0	0.0	0.0	0.0	0.0	0.0	0.0	0.0	0.0	0.0	0.007660377651901778	0.0	0.0	0.34117637179291754	0.0	0.0	0.0	0.0	0.0	0.0	0.0	0.0	0.0	0.0	-0.0	0.0	0.0	0.0	-0.0	0.0	0.0	0.0	0.04162129979647679	0.0	0.0	0.0	0.0	0.0	0.0	0.0	-0.23892737849868823	0.0	0.0	-0.0	-0.0	0.0	0.0	0.0	0.0	-0.0	0.0	0.0	0.0	0.0	0.0	0.0	0.0	0.0	0.0	0.009029429200320044	0.0	0.0	0.0	0.0	0.0	-0.06396290231587824	0.0	0.0	0.0	0.0	0.0	0.0	0.0	0.0	0.0	0.0	0.0	0.0	0.0	0.0	0.0	0.3932454186126651	0.0	0.0957289521100051	0.0	0.0	0.0	0.0	0.0	0.0	-0.0	0.0	0.0	-0.021499287089518076	0.0	0.0	4.785972156358102E-4	0.0	0.0	0.0	0.0	0.0	0.0	0.0	0.0	0.0	0.0	0.0	0.0	0.0	0.0	0.0	0.0	0.0	-0.0	0.0	0.0	0.0	0.0	0.0	0.0	0.0	0.0	0.21114990830292554	0.0	0.006180021437612157	0.0	0.0	0.0	0.0	0.0	0.0	0.0	0.0	0.0	-0.0	0.0	0.0	-0.0	0.0	0.0	0.0	-0.6094854740622623	0.0	0.0	0.0	-0.0	0.0	0.0	0.0	0.0	0.0	0.0	0.0	0.0	0.0	-0.0	0.0	0.0	-8.396376908610138E-4	0.0	0.0	-0.01858534926898067	0.0	0.0	0.0	0.0	-0.0025338789700784926	0.0353164604032302	-0.0	0.0	0.0	0.0	0.0	-0.0	0.0	0.0	0.0	0.0
ENSG00000163159	0.0	0.0	0.0	0.0	0.0	0.0	0.0	0.22953114651022039	0.0	0.0	0.0	0.0	0.0	0.0	0.0	-0.02168183851271905	0.0	0.0	0.0	-0.23282349587679355	0.0	0.0	0.0	0.0	0.0	0.0	0.0	0.0	0.0	0.0	-0.0	0.0	0.0	0.0	0.0	0.0	0.12558863888581825	0.38692391238499857	0.0	0.0	0.0	0.0	0.0	0.0	0.0	0.0	0.0	0.0	0.0	0.3103853323012663	0.0	0.0	0.0	0.0	0.0	0.0	0.0	0.0	0.0	0.0	0.0	-0.0	0.0	0.0	0.0	0.0	0.0	0.0	0.0	0.0	0.0	0.0	0.0	0.0	0.0	0.0	0.0	0.0	0.0	0.0	0.0	7.048519421042322E-4	0.0	0.0	-0.11692600242441818	0.0	0.0	0.0	0.0	0.0	0.0	0.0	0.0	0.0	0.0	-0.0	0.0	0.0	0.0	-0.0	0.0	0.0	0.0	0.003720128482171176	0.0	0.0	0.0	0.0	0.0	0.0	0.0	-0.01156528906415782	0.0	0.0	-0.0	-0.0	0.0	0.0	0.0	0.0	-0.0	0.0	0.0	0.0	0.0	0.0	0.0	0.0	0.0	0.0	0.002829501652334931	0.0	0.0	0.0	0.0	0.0	-0.013006100334521974	0.0	0.0	0.0	0.0	0.0	0.0	0.0	0.0	0.0	0.0	0.0	0.0	0.0	0.0	0.0	0.18098905815229693	0.0	0.055073461815760595	0.0	0.0	0.0	0.0	0.0	0.0	-0.0	0.0	0.0	-0.008545642788007082	0.0	0.0	0.001574890261342496	0.0	0.0	0.0	0.0	0.0	0.0	0.0	0.0	0.0	0.0	0.0	0.0	0.0	0.0	0.0	0.0	0.0	-0.0	0.0	0.0	0.0	0.0	0.0	0.0	0.0	0.0	0.3886409910898368	0.0	-0.04825041264786936	0.0	0.0	0.0	0.0	0.0	0.0	0.0	0.0	0.0	-0.0	0.0	0.0	-0.0	0.0	0.0	0.0	0.6524275907314371	0.0	0.0	0.0	-0.0	0.0	0.0	0.0	0.0	0.0	0.0	0.0	0.0	0.0	-0.0	0.0	0.0	-0.00809631264607212	0.0	0.0	0.02727534183757099	0.0	0.0	0.0	0.0	-7.243474032176764E-4	-0.03335584754203334	-0.0	0.0	0.0	0.0	0.0	-0.0	0.0	0.0	0.0	0.0
ENSG00000143398	0.0	0.0	0.0	0.0	0.0	0.0	0.0	0.15792118610410466	0.0	0.0	0.0	0.0	0.0	0.0	0.0	-0.01792457698637123	0.0	0.0	0.0	-0.15544622331877367	0.0	0.0	0.0	0.0	0.0	0.0	0.0	0.0	0.0	0.0	-0.0	0.0	0.0	0.0	0.0	0.0	0.11679033623418048	0.35864763916275216	0.0	0.0	0.0	0.0	0.0	0.0	0.0	0.0	0.0	0.0	0.0	0.4035701941762624	0.0	0.0	0.0	0.0	0.0	0.0	0.0	0.0	0.0	0.0	0.0	-0.0	0.0	0.0	0.0	0.0	0.0	0.0	0.0	0.0	0.0	0.0	0.0	0.0	0.0	0.0	0.0	0.0	0.0	0.0	0.0	0.004000867202768857	0.0	0.0	-0.5144469257860071	0.0	0.0	0.0	0.0	0.0	0.0	0.0	0.0	0.0	0.0	-0.0	0.0	0.0	0.0	-0.0	0.0	0.0	0.0	-0.04393821411489944	0.0	0.0	0.0	0.0	0.0	0.0	0.0	0.2212816296246514	0.0	0.0	-0.0	-0.0	0.0	0.0	0.0	0.0	-0.0	0.0	0.0	0.0	0.0	0.0	0.0	0.0	0.0	0.0	6.435354039637892E-4	0.0	0.0	0.0	0.0	0.0	0.04415637541749764	0.0	0.0	0.0	0.0	0.0	0.0	0.0	0.0	0.0	0.0	0.0	0.0	0.0	0.0	0.0	-0.2940438117886572	0.0	-0.0896357688517287	0.0	0.0	0.0	0.0	0.0	0.0	-0.0	0.0	0.0	0.01823373540389523	0.0	0.0	-8.768988392298329E-4	0.0	0.0	0.0	0.0	0.0	0.0	0.0	0.0	0.0	0.0	0.0	0.0	0.0	0.0	0.0	0.0	0.0	-0.0	0.0	0.0	0.0	0.0	0.0	0.0	0.0	0.0	-0.3610566399528215	0.0	0.036650115205207154	0.0	0.0	0.0	0.0	0.0	0.0	0.0	0.0	0.0	-0.0	0.0	0.0	-0.0	0.0	0.0	0.0	-0.31733248784133533	0.0	0.0	0.0	-0.0	0.0	0.0	0.0	0.0	0.0	0.0	0.0	0.0	0.0	-0.0	0.0	0.0	-0.00910519603545152	0.0	0.0	-0.010246538311055535	0.0	0.0	0.0	0.0	0.0022713100774402603	0.022213310204662166	-0.0	0.0	0.0	0.0	0.0	-0.0	0.0	0.0	0.0	0.0
ENSG00000143590	0.0	0.0	0.0	0.0	0.0	0.0	0.0	0.0029298217605922897	0.0	0.0	0.0	0.0	0.0	0.0	0.0	0.29809384073948003	0.0	0.0	0.0	-0.017008383796572674	0.0	0.0	0.0	0.0	0.0	0.0	0.0	0.0	0.0	0.0	-0.0	0.0	0.0	0.0	0.0	0.0	0.19506897457650474	-0.07007472061764879	0.0	0.0	0.0	0.0	0.0	0.0	0.0	0.0	0.0	0.0	0.0	0.010261425841597388	0.0	0.0	0.0	0.0	0.0	0.0	0.0	0.0	0.0	0.0	0.0	-0.0	0.0	0.0	0.0	0.0	0.0	0.0	0.0	0.0	0.0	0.0	0.0	0.0	0.0	0.0	0.0	0.0	0.0	0.0	0.0	0.7099445274841261	0.0	0.0	-0.007668886828585786	0.0	0.0	0.0	0.0	0.0	0.0	0.0	0.0	0.0	0.0	-0.0	0.0	0.0	0.0	-0.0	0.0	0.0	0.0	0.4390239961128056	0.0	0.0	0.0	0.0	0.0	0.0	0.0	0.04519064070613401	0.0	0.0	-0.0	-0.0	0.0	0.0	0.0	0.0	-0.0	0.0	0.0	0.0	0.0	0.0	0.0	0.0	0.0	0.0	-0.2519372026630326	0.0	0.0	0.0	0.0	0.0	2.2705885437969024E-4	0.0	0.0	0.0	0.0	0.0	0.0	0.0	0.0	0.0	0.0	0.0	0.0	0.0	0.0	0.0	-0.013208993470877561	0.0	-0.0016099049996736552	0.0	0.0	0.0	0.0	0.0	0.0	-0.0	0.0	0.0	0.06619093721854095	0.0	0.0	0.3174758357287484	0.0	0.0	0.0	0.0	0.0	0.0	0.0	0.0	0.0	0.0	0.0	0.0	0.0	0.0	0.0	0.0	0.0	-0.0	0.0	0.0	0.0	0.0	0.0	0.0	0.0	0.0	0.005362632449418518	0.0	0.002345917806740231	0.0	0.0	0.0	0.0	0.0	0.0	0.0	0.0	0.0	-0.0	0.0	0.0	-0.0	0.0	0.0	0.0	6.082006627164727E-5	0.0	0.0	0.0	-0.0	0.0	0.0	0.0	0.0	0.0	0.0	0.0	0.0	0.0	-0.0	0.0	0.0	1.1616331319687561E-4	0.0	0.0	6.927668072529345E-4	0.0	0.0	0.0	0.0	0.007332250351465507	2.76241013748491E-4	-0.0	0.0	0.0	0.0	0.0	-0.0	0.0	0.0	0.0	0.0
ENSG00000169242	0.0	0.0	0.0	0.0	0.0	0.0	0.0	0.0049598842583173175	0.0	0.0	0.0	0.0	0.0	0.0	0.0	0.41257186289036824	0.0	0.0	0.0	-0.019283555177462882	0.0	0.0	0.0	0.0	0.0	0.0	0.0	0.0	0.0	0.0	-0.0	0.0	0.0	0.0	0.0	0.0	0.2515259599596919	-0.07790793589383274	0.0	0.0	0.0	0.0	0.0	0.0	0.0	0.0	0.0	0.0	0.0	0.0014567753450753233	0.0	0.0	0.0	0.0	0.0	0.0	0.0	0.0	0.0	0.0	0.0	-0.0	0.0	0.0	0.0	0.0	0.0	0.0	0.0	0.0	0.0	0.0	0.0	0.0	0.0	0.0	0.0	0.0	0.0	0.0	0.0	0.23690279837269537	0.0	0.0	0.0015596344687104796	0.0	0.0	0.0	0.0	0.0	0.0	0.0	0.0	0.0	0.0	-0.0	0.0	0.0	0.0	-0.0	0.0	0.0	0.0	-0.057791738930388435	0.0	0.0	0.0	0.0	0.0	0.0	0.0	0.004074615043212296	0.0	0.0	-0.0	-0.0	0.0	0.0	0.0	0.0	-0.0	0.0	0.0	0.0	0.0	0.0	0.0	0.0	0.0	0.0	0.24809826709528532	0.0	0.0	0.0	0.0	0.0	-0.009995178695478236	0.0	0.0	0.0	0.0	0.0	0.0	0.0	0.0	0.0	0.0	0.0	0.0	0.0	0.0	0.0	0.003471570626224491	0.0	-0.02582116547484821	0.0	0.0	0.0	0.0	0.0	0.0	-0.0	0.0	0.0	-0.18974368594216837	0.0	0.0	-0.772431645660533	0.0	0.0	0.0	0.0	0.0	0.0	0.0	0.0	0.0	0.0	0.0	0.0	0.0	0.0	0.0	0.0	0.0	-0.0	0.0	0.0	0.0	0.0	0.0	0.0	0.0	0.0	-0.0030462109546762622	0.0	0.002373713699509928	0.0	0.0	0.0	0.0	0.0	0.0	0.0	0.0	0.0	-0.0	0.0	0.0	-0.0	0.0	0.0	0.0	0.003826003558193818	0.0	0.0	0.0	-0.0	0.0	0.0	0.0	0.0	0.0	0.0	0.0	0.0	0.0	-0.0	0.0	0.0	0.0023769008150031664	0.0	0.0	0.0011592468346316382	0.0	0.0	0.0	0.0	-0.0744828577826052	2.745048447139022E-4	-0.0	0.0	0.0	0.0	0.0	-0.0	0.0	0.0	0.0	0.0
ENSG00000273088	0.0	0.0	0.0	0.0	0.0	0.0	0.0	0.006947522895310117	0.0	0.0	0.0	0.0	0.0	0.0	0.0	0.44875475444085217	0.0	0.0	0.0	-0.025485068595682416	0.0	0.0	0.0	0.0	0.0	0.0	0.0	0.0	0.0	0.0	-0.0	0.0	0.0	0.0	0.0	0.0	0.23000123755847512	-0.06591285142731855	0.0	0.0	0.0	0.0	0.0	0.0	0.0	0.0	0.0	0.0	0.0	-0.004288808897553548	0.0	0.0	0.0	0.0	0.0	0.0	0.0	0.0	0.0	0.0	0.0	-0.0	0.0	0.0	0.0	0.0	0.0	0.0	0.0	0.0	0.0	0.0	0.0	0.0	0.0	0.0	0.0	0.0	0.0	0.0	0.0	-0.16193002581076438	0.0	0.0	0.007247299861627978	0.0	0.0	0.0	0.0	0.0	0.0	0.0	0.0	0.0	0.0	-0.0	0.0	0.0	0.0	-0.0	0.0	0.0	0.0	-0.2845727349352855	0.0	0.0	0.0	0.0	0.0	0.0	0.0	-0.024367754957960473	0.0	0.0	-0.0	-0.0	0.0	0.0	0.0	0.0	-0.0	0.0	0.0	0.0	0.0	0.0	0.0	0.0	0.0	0.0	0.11506497273491217	0.0	0.0	0.0	0.0	0.0	0.002071064122184865	0.0	0.0	0.0	0.0	0.0	0.0	0.0	0.0	0.0	0.0	0.0	0.0	0.0	0.0	0.0	0.010243966002204298	0.0	0.008125399053279398	0.0	0.0	0.0	0.0	0.0	0.0	-0.0	0.0	0.0	0.07983641771999266	0.0	0.0	0.2385917819887483	0.0	0.0	0.0	0.0	0.0	0.0	0.0	0.0	0.0	0.0	0.0	0.0	0.0	0.0	0.0	0.0	0.0	-0.0	0.0	0.0	0.0	0.0	0.0	0.0	0.0	0.0	0.0035596742568496363	0.0	3.3213933923919453E-4	0.0	0.0	0.0	0.0	0.0	0.0	0.0	0.0	0.0	-0.0	0.0	0.0	-0.0	0.0	0.0	0.0	-0.002705526843476384	0.0	0.0	0.0	-0.0	0.0	0.0	0.0	0.0	0.0	0.0	0.0	0.0	0.0	-0.0	0.0	0.0	-0.005112854977285167	0.0	0.0	0.011187775906193806	0.0	0.0	0.0	0.0	0.7455809196712223	-0.005590506535761044	-0.0	0.0	0.0	0.0	0.0	-0.0	0.0	0.0	0.0	0.0
ENSG00000163462	0.0	0.0	0.0	0.0	0.0	0.0	0.0	0.007528010490952876	0.0	0.0	0.0	0.0	0.0	0.0	0.0	0.43762083304206756	0.0	0.0	0.0	-0.0244661852248603	0.0	0.0	0.0	0.0	0.0	0.0	0.0	0.0	0.0	0.0	-0.0	0.0	0.0	0.0	0.0	0.0	0.23113440149812867	-0.0676357798341454	0.0	0.0	0.0	0.0	0.0	0.0	0.0	0.0	0.0	0.0	0.0	-0.004490530007787716	0.0	0.0	0.0	0.0	0.0	0.0	0.0	0.0	0.0	0.0	0.0	-0.0	0.0	0.0	0.0	0.0	0.0	0.0	0.0	0.0	0.0	0.0	0.0	0.0	0.0	0.0	0.0	0.0	0.0	0.0	0.0	-0.16357921205026496	0.0	0.0	0.00541480176907992	0.0	0.0	0.0	0.0	0.0	0.0	0.0	0.0	0.0	0.0	-0.0	0.0	0.0	0.0	-0.0	0.0	0.0	0.0	-0.33760114537197555	0.0	0.0	0.0	0.0	0.0	0.0	0.0	-0.02665357152737619	0.0	0.0	-0.0	-0.0	0.0	0.0	0.0	0.0	-0.0	0.0	0.0	0.0	0.0	0.0	0.0	0.0	0.0	0.0	0.14274909414731957	0.0	0.0	0.0	0.0	0.0	0.0021173211508103075	0.0	0.0	0.0	0.0	0.0	0.0	0.0	0.0	0.0	0.0	0.0	0.0	0.0	0.0	0.0	0.010249922257056952	0.0	0.010556673878758974	0.0	0.0	0.0	0.0	0.0	0.0	-0.0	0.0	0.0	0.10804998200978908	0.0	0.0	0.3740439019999634	0.0	0.0	0.0	0.0	0.0	0.0	0.0	0.0	0.0	0.0	0.0	0.0	0.0	0.0	0.0	0.0	0.0	-0.0	0.0	0.0	0.0	0.0	0.0	0.0	0.0	0.0	4.501776820728431E-4	0.0	-0.008151396668714346	0.0	0.0	0.0	0.0	0.0	0.0	0.0	0.0	0.0	-0.0	0.0	0.0	-0.0	0.0	0.0	0.0	-0.0010711702745901952	0.0	0.0	0.0	-0.0	0.0	0.0	0.0	0.0	0.0	0.0	0.0	0.0	0.0	-0.0	0.0	0.0	0.005175582960230005	0.0	0.0	-0.011666998856976233	0.0	0.0	0.0	0.0	-0.6602301420732112	0.005096026018040799	-0.0	0.0	0.0	0.0	0.0	-0.0	0.0	0.0	0.0	0.0
ENSG00000177628	0.0	0.0	0.0	0.0	0.0	0.0	0.0	0.00726392917509899	0.0	0.0	0.0	0.0	0.0	0.0	0.0	0.3789791799477615	0.0	0.0	0.0	-0.02117265709494381	0.0	0.0	0.0	0.0	0.0	0.0	0.0	0.0	0.0	0.0	-0.0	0.0	0.0	0.0	0.0	0.0	-0.010698666323304679	0.021327842524949014	0.0	0.0	0.0	0.0	0.0	0.0	0.0	0.0	0.0	0.0	0.0	0.003541053202825136	0.0	0.0	0.0	0.0	0.0	0.0	0.0	0.0	0.0	0.0	0.0	-0.0	0.0	0.0	0.0	0.0	0.0	0.0	0.0	0.0	0.0	0.0	0.0	0.0	0.0	0.0	0.0	0.0	0.0	0.0	0.0	-0.49850587769687127	0.0	0.0	-0.009506372272552934	0.0	0.0	0.0	0.0	0.0	0.0	0.0	0.0	0.0	0.0	-0.0	0.0	0.0	0.0	-0.0	0.0	0.0	0.0	0.3003270788977447	0.0	0.0	0.0	0.0	0.0	0.0	0.0	-0.007277959732690792	0.0	0.0	-0.0	-0.0	0.0	0.0	0.0	0.0	-0.0	0.0	0.0	0.0	0.0	0.0	0.0	0.0	0.0	0.0	-0.6902762845373523	0.0	0.0	0.0	0.0	0.0	0.014784031760362866	0.0	0.0	0.0	0.0	0.0	0.0	0.0	0.0	0.0	0.0	0.0	0.0	0.0	0.0	0.0	-0.018476487377523207	0.0	0.007172905507816123	0.0	0.0	0.0	0.0	0.0	0.0	-0.0	0.0	0.0	-0.07640498719146761	0.0	0.0	-0.17706294828098892	0.0	0.0	0.0	0.0	0.0	0.0	0.0	0.0	0.0	0.0	0.0	0.0	0.0	0.0	0.0	0.0	0.0	-0.0	0.0	0.0	0.0	0.0	0.0	0.0	0.0	0.0	-0.005658909517639489	0.0	0.0029723725509411096	0.0	0.0	0.0	0.0	0.0	0.0	0.0	0.0	0.0	-0.0	0.0	0.0	-0.0	0.0	0.0	0.0	-0.0019462446092257438	0.0	0.0	0.0	-0.0	0.0	0.0	0.0	0.0	0.0	0.0	0.0	0.0	0.0	-0.0	0.0	0.0	-6.296124826267707E-5	0.0	0.0	-0.003008419007267469	0.0	0.0	0.0	0.0	-0.04590942447386116	-9.592063700862609E-4	-0.0	0.0	0.0	0.0	0.0	-0.0	0.0	0.0	0.0	0.0
ENSG00000125459	0.0	0.0	0.0	0.0	0.0	0.0	0.0	0.005338998891136485	0.0	0.0	0.0	0.0	0.0	0.0	0.0	0.30153382135277995	0.0	0.0	0.0	-0.02295572610190403	0.0	0.0	0.0	0.0	0.0	0.0	0.0	0.0	0.0	0.0	-0.0	0.0	0.0	0.0	0.0	0.0	-0.36877601137463434	0.12065811832930573	0.0	0.0	0.0	0.0	0.0	0.0	0.0	0.0	0.0	0.0	0.0	-0.011642002542269202	0.0	0.0	0.0	0.0	0.0	0.0	0.0	0.0	0.0	0.0	0.0	-0.0	0.0	0.0	0.0	0.0	0.0	0.0	0.0	0.0	0.0	0.0	0.0	0.0	0.0	0.0	0.0	0.0	0.0	0.0	0.0	-0.22009049911206102	0.0	0.0	-0.02100705765808595	0.0	0.0	0.0	0.0	0.0	0.0	0.0	0.0	0.0	0.0	-0.0	0.0	0.0	0.0	-0.0	0.0	0.0	0.0	0.5770106644435703	0.0	0.0	0.0	0.0	0.0	0.0	0.0	0.0805664960967492	0.0	0.0	-0.0	-0.0	0.0	0.0	0.0	0.0	-0.0	0.0	0.0	0.0	0.0	0.0	0.0	0.0	0.0	0.0	0.5475416292320923	0.0	0.0	0.0	0.0	0.0	-0.018079094724820374	0.0	0.0	0.0	0.0	0.0	0.0	0.0	0.0	0.0	0.0	0.0	0.0	0.0	0.0	0.0	0.011495478642045304	0.0	-0.013632986339098423	0.0	0.0	0.0	0.0	0.0	0.0	-0.0	0.0	0.0	0.26076338865926674	0.0	0.0	0.03218005527192764	0.0	0.0	0.0	0.0	0.0	0.0	0.0	0.0	0.0	0.0	0.0	0.0	0.0	0.0	0.0	0.0	0.0	-0.0	0.0	0.0	0.0	0.0	0.0	0.0	0.0	0.0	-0.0020852273981970897	0.0	4.345500654335537E-4	0.0	0.0	0.0	0.0	0.0	0.0	0.0	0.0	0.0	-0.0	0.0	0.0	-0.0	0.0	0.0	0.0	-6.852833839060608E-4	0.0	0.0	0.0	-0.0	0.0	0.0	0.0	0.0	0.0	0.0	0.0	0.0	0.0	-0.0	0.0	0.0	3.9809927828453285E-4	0.0	0.0	0.002095375749928694	0.0	0.0	0.0	0.0	-0.005389406949536169	6.57701099406989E-4	-0.0	0.0	0.0	0.0	0.0	-0.0	0.0	0.0	0.0	0.0
ENSG00000132718	0.0	0.0	0.0	0.0	0.0	0.0	0.0	0.00651157578748105	0.0	0.0	0.0	0.0	0.0	0.0	0.0	0.2595861613057798	0.0	0.0	0.0	-0.02094382203083393	0.0	0.0	0.0	0.0	0.0	0.0	0.0	0.0	0.0	0.0	-0.0	0.0	0.0	0.0	0.0	0.0	-0.5305242334876794	0.16472536218902442	0.0	0.0	0.0	0.0	0.0	0.0	0.0	0.0	0.0	0.0	0.0	0.0068930494359302685	0.0	0.0	0.0	0.0	0.0	0.0	0.0	0.0	0.0	0.0	0.0	-0.0	0.0	0.0	0.0	0.0	0.0	0.0	0.0	0.0	0.0	0.0	0.0	0.0	0.0	0.0	0.0	0.0	0.0	0.0	0.0	0.1390756696576315	0.0	0.0	9.04884086696346E-5	0.0	0.0	0.0	0.0	0.0	0.0	0.0	0.0	0.0	0.0	-0.0	0.0	0.0	0.0	-0.0	0.0	0.0	0.0	-0.15303852369237778	0.0	0.0	0.0	0.0	0.0	0.0	0.0	-0.01819441164800035	0.0	0.0	-0.0	-0.0	0.0	0.0	0.0	0.0	-0.0	0.0	0.0	0.0	0.0	0.0	0.0	0.0	0.0	0.0	0.023196324315636417	0.0	0.0	0.0	0.0	0.0	0.001729886257242993	0.0	0.0	0.0	0.0	0.0	0.0	0.0	0.0	0.0	0.0	0.0	0.0	0.0	0.0	0.0	-0.04029651632869241	0.0	0.019330050811820633	0.0	0.0	0.0	0.0	0.0	0.0	-0.0	0.0	0.0	-0.7358509788722062	0.0	0.0	0.19055754859974783	0.0	0.0	0.0	0.0	0.0	0.0	0.0	0.0	0.0	0.0	0.0	0.0	0.0	0.0	0.0	0.0	0.0	-0.0	0.0	0.0	0.0	0.0	0.0	0.0	0.0	0.0	-0.003280303366214865	0.0	-3.779724710413353E-4	0.0	0.0	0.0	0.0	0.0	0.0	0.0	0.0	0.0	-0.0	0.0	0.0	-0.0	0.0	0.0	0.0	0.0017868255264915363	0.0	0.0	0.0	-0.0	0.0	0.0	0.0	0.0	0.0	0.0	0.0	0.0	0.0	-0.0	0.0	0.0	-0.0015476214392074327	0.0	0.0	-0.0027126261422870932	0.0	0.0	0.0	0.0	0.0070591004061014906	-0.0010667085083107986	-0.0	0.0	0.0	0.0	0.0	-0.0	0.0	0.0	0.0	0.0
ENSG00000132680	0.0	0.0	0.0	0.0	0.0	0.0	0.0	0.0034384050897378546	0.0	0.0	0.0	0.0	0.0	0.0	0.0	0.2055410588817657	0.0	0.0	0.0	-0.016349870046713854	0.0	0.0	0.0	0.0	0.0	0.0	0.0	0.0	0.0	0.0	-0.0	0.0	0.0	0.0	0.0	0.0	-0.5352573190756155	0.16292736849822742	0.0	0.0	0.0	0.0	0.0	0.0	0.0	0.0	0.0	0.0	0.0	0.012769018622450487	0.0	0.0	0.0	0.0	0.0	0.0	0.0	0.0	0.0	0.0	0.0	-0.0	0.0	0.0	0.0	0.0	0.0	0.0	0.0	0.0	0.0	0.0	0.0	0.0	0.0	0.0	0.0	0.0	0.0	0.0	0.0	0.2636544679608868	0.0	0.0	0.017471046501167372	0.0	0.0	0.0	0.0	0.0	0.0	0.0	0.0	0.0	0.0	-0.0	0.0	0.0	0.0	-0.0	0.0	0.0	0.0	-0.38936207499995146	0.0	0.0	0.0	0.0	0.0	0.0	0.0	-0.03416046649276825	0.0	0.0	-0.0	-0.0	0.0	0.0	0.0	0.0	-0.0	0.0	0.0	0.0	0.0	0.0	0.0	0.0	0.0	0.0	-0.24834049645937142	0.0	0.0	0.0	0.0	0.0	0.0020799589696484442	0.0	0.0	0.0	0.0	0.0	0.0	0.0	0.0	0.0	0.0	0.0	0.0	0.0	0.0	0.0	0.03641062160229452	0.0	-0.011419680913997107	0.0	0.0	0.0	0.0	0.0	0.0	-0.0	0.0	0.0	0.5679279236156355	0.0	0.0	-0.18947385622437055	0.0	0.0	0.0	0.0	0.0	0.0	0.0	0.0	0.0	0.0	0.0	0.0	0.0	0.0	0.0	0.0	0.0	-0.0	0.0	0.0	0.0	0.0	0.0	0.0	0.0	0.0	0.007874277020119232	0.0	-0.005379142275111714	0.0	0.0	0.0	0.0	0.0	0.0	0.0	0.0	0.0	-0.0	0.0	0.0	-0.0	0.0	0.0	0.0	-6.257202430874142E-4	0.0	0.0	0.0	-0.0	0.0	0.0	0.0	0.0	0.0	0.0	0.0	0.0	0.0	-0.0	0.0	0.0	0.002340841151016112	0.0	0.0	0.001646763437520814	0.0	0.0	0.0	0.0	3.819698983524975E-4	8.202431087661827E-4	-0.0	0.0	0.0	0.0	0.0	-0.0	0.0	0.0	0.0	0.0
ENSG00000180423	0.0	0.0	0.0	0.0	0.1269962619162082	0.0	0.0	0.0	0.0	0.0	0.0	0.0	0.0	0.0	0.0	0.0	0.0	-0.39540185737102324	0.0	0.0	0.0	0.0	0.0	0.0	0.0	0.07658625789052632	0.0	0.0	0.0	0.0	-0.0	0.0	0.0	0.0	0.0	0.0	0.0	0.0	0.0	0.0	0.0	0.0	0.0	0.0	0.0	0.0	0.0	0.0	0.0	0.0	0.0	0.0	0.0	0.0	0.0	0.0	0.0	0.0	0.0	0.0	0.0	-0.0	0.0	0.0	0.0	0.0	0.0	0.0	0.0	0.0	0.0	0.0	0.0	0.0	0.0	0.3869223755901075	0.0	0.0	0.0	0.0	0.0	0.0	-0.07606533130378734	0.0	0.0	0.0	0.0	0.0	0.0	0.0	0.0	0.0	0.0	0.0	0.0	-0.0	0.0	0.0	0.0	-0.0	0.0	0.0	0.0	0.0	0.0	0.0	0.0	0.0	0.0	0.0	0.0	0.0	0.0	0.2884438262661047	-0.0	-0.0	0.0	0.0	0.0	0.0	-0.0	0.0	0.0	0.0	0.0	0.0	0.0	0.018238119494217494	0.0	0.0	0.0	0.0	0.06587077116461007	0.0	0.0	0.0	0.0	0.0	0.0	0.0	0.0	0.0	0.0	0.6445012376601733	0.09094308526567522	0.0	0.0	0.0	0.0	0.0	0.08179148274504425	0.0	0.0	0.0	0.0	0.0	0.0	0.0	0.0	0.0	0.0	-0.3333003538548377	0.0	0.0	0.0	0.12704389719476614	0.0	0.0	0.0	0.0	0.0	0.0	0.0	0.0	0.0	0.0	0.0	-0.005842332569777269	0.0	0.0	0.0	0.0	0.0	0.0	0.0	-0.0	0.0	0.0	0.0	0.0	0.0	0.0	0.0	0.0	0.0	0.0	0.0	0.0	0.0	0.0	0.0	0.0	0.0	0.0	0.0	0.0	-0.0	0.0	0.0	0.028845494056372666	0.14088086667869182	0.0	0.0	0.0	0.0	0.0	0.0	-0.0	0.0	0.0035141944572932913	0.0	0.0	0.0	0.0	0.0	0.0	0.0	-0.0	0.0	0.0	0.0	0.0	0.0	0.0	0.0	0.0	0.0	0.0	0.0	0.0	-0.0	0.0	0.0	0.0	0.0	-0.0	0.0	0.0	0.0	0.0
ENSG00000175224	0.0	0.0	0.0	0.0	0.15245840206908412	0.0	0.0	0.0	0.0	0.0	0.0	0.0	0.0	0.0	0.0	0.0	0.0	-0.44674671441048397	0.0	0.0	0.0	0.0	0.0	0.0	0.0	0.07733067458831475	0.0	0.0	0.0	0.0	-0.0	0.0	0.0	0.0	0.0	0.0	0.0	0.0	0.0	0.0	0.0	0.0	0.0	0.0	0.0	0.0	0.0	0.0	0.0	0.0	0.0	0.0	0.0	0.0	0.0	0.0	0.0	0.0	0.0	0.0	0.0	-0.0	0.0	0.0	0.0	0.0	0.0	0.0	0.0	0.0	0.0	0.0	0.0	0.0	0.0	0.27046030301680885	0.0	0.0	0.0	0.0	0.0	0.0	-0.07167858970395441	0.0	0.0	0.0	0.0	0.0	0.0	0.0	0.0	0.0	0.0	0.0	0.0	-0.0	0.0	0.0	0.0	-0.0	0.0	0.0	0.0	0.0	0.0	0.0	0.0	0.0	0.0	0.0	0.0	0.0	0.0	0.12472276411908166	-0.0	-0.0	0.0	0.0	0.0	0.0	-0.0	0.0	0.0	0.0	0.0	0.0	0.0	-0.00344129053745524	0.0	0.0	0.0	0.0	-0.026565782385235992	0.0	0.0	0.0	0.0	0.0	0.0	0.0	0.0	0.0	0.0	-0.24878001904477048	-0.020492057382591883	0.0	0.0	0.0	0.0	0.0	-0.030093552347040545	0.0	0.0	0.0	0.0	0.0	0.0	0.0	0.0	0.0	0.0	0.20102731958277384	0.0	0.0	0.0	-0.05184976305261196	0.0	0.0	0.0	0.0	0.0	0.0	0.0	0.0	0.0	0.0	0.0	0.020669329383006363	0.0	0.0	0.0	0.0	0.0	0.0	0.0	-0.0	0.0	0.0	0.0	0.0	0.0	0.0	0.0	0.0	0.0	0.0	0.0	0.0	0.0	0.0	0.0	0.0	0.0	0.0	0.0	0.0	-0.0	0.0	0.0	-0.07300484633116079	-0.748806447749994	0.0	0.0	0.0	0.0	0.0	0.0	-0.0	0.0	-0.06203529952579325	0.0	0.0	0.0	0.0	0.0	0.0	0.0	-0.0	0.0	0.0	0.0	0.0	0.0	0.0	0.0	0.0	0.0	0.0	0.0	0.0	-0.0	0.0	0.0	0.0	0.0	-0.0	0.0	0.0	0.0	0.0
ENSG00000175220	0.0	0.0	0.0	0.0	0.14774953193451604	0.0	0.0	0.0	0.0	0.0	0.0	0.0	0.0	0.0	0.0	0.0	0.0	-0.442202648712381	0.0	0.0	0.0	0.0	0.0	0.0	0.0	0.06788820045802085	0.0	0.0	0.0	0.0	-0.0	0.0	0.0	0.0	0.0	0.0	0.0	0.0	0.0	0.0	0.0	0.0	0.0	0.0	0.0	0.0	0.0	0.0	0.0	0.0	0.0	0.0	0.0	0.0	0.0	0.0	0.0	0.0	0.0	0.0	0.0	-0.0	0.0	0.0	0.0	0.0	0.0	0.0	0.0	0.0	0.0	0.0	0.0	0.0	0.0	0.23983266685206223	0.0	0.0	0.0	0.0	0.0	0.0	-0.07680253219810354	0.0	0.0	0.0	0.0	0.0	0.0	0.0	0.0	0.0	0.0	0.0	0.0	-0.0	0.0	0.0	0.0	-0.0	0.0	0.0	0.0	0.0	0.0	0.0	0.0	0.0	0.0	0.0	0.0	0.0	0.0	0.07763690319790402	-0.0	-0.0	0.0	0.0	0.0	0.0	-0.0	0.0	0.0	0.0	0.0	0.0	0.0	-0.026261201567308785	0.0	0.0	0.0	0.0	-0.09768646332073984	0.0	0.0	0.0	0.0	0.0	0.0	0.0	0.0	0.0	0.0	-0.4785177803068422	-0.03314757106607019	0.0	0.0	0.0	0.0	0.0	-0.06472773930444659	0.0	0.0	0.0	0.0	0.0	0.0	0.0	0.0	0.0	0.0	0.22791997744524595	0.0	0.0	0.0	-0.08584779331924666	0.0	0.0	0.0	0.0	0.0	0.0	0.0	0.0	0.0	0.0	0.0	0.008755831097451117	0.0	0.0	0.0	0.0	0.0	0.0	0.0	-0.0	0.0	0.0	0.0	0.0	0.0	0.0	0.0	0.0	0.0	0.0	0.0	0.0	0.0	0.0	0.0	0.0	0.0	0.0	0.0	0.0	-0.0	0.0	0.0	0.055337365175024314	0.6310897327015041	0.0	0.0	0.0	0.0	0.0	0.0	-0.0	0.0	0.057807933078225925	0.0	0.0	0.0	0.0	0.0	0.0	0.0	-0.0	0.0	0.0	0.0	0.0	0.0	0.0	0.0	0.0	0.0	0.0	0.0	0.0	-0.0	0.0	0.0	0.0	0.0	-0.0	0.0	0.0	0.0	0.0
ENSG00000134569	0.0	0.0	0.0	0.0	0.15505482698479184	0.0	0.0	0.0	0.0	0.0	0.0	0.0	0.0	0.0	0.0	0.0	0.0	-0.3878566292344157	0.0	0.0	0.0	0.0	0.0	0.0	0.0	0.043707045501579965	0.0	0.0	0.0	0.0	-0.0	0.0	0.0	0.0	0.0	0.0	0.0	0.0	0.0	0.0	0.0	0.0	0.0	0.0	0.0	0.0	0.0	0.0	0.0	0.0	0.0	0.0	0.0	0.0	0.0	0.0	0.0	0.0	0.0	0.0	0.0	-0.0	0.0	0.0	0.0	0.0	0.0	0.0	0.0	0.0	0.0	0.0	0.0	0.0	0.0	-0.30643875885915106	0.0	0.0	0.0	0.0	0.0	0.0	0.06673018368392572	0.0	0.0	0.0	0.0	0.0	0.0	0.0	0.0	0.0	0.0	0.0	0.0	-0.0	0.0	0.0	0.0	-0.0	0.0	0.0	0.0	0.0	0.0	0.0	0.0	0.0	0.0	0.0	0.0	0.0	0.0	-0.47321392909064275	-0.0	-0.0	0.0	0.0	0.0	0.0	-0.0	0.0	0.0	0.0	0.0	0.0	0.0	-0.009131771400503138	0.0	0.0	0.0	0.0	0.04152676690145524	0.0	0.0	0.0	0.0	0.0	0.0	0.0	0.0	0.0	0.0	-0.22076695128925558	-0.10503986785859104	0.0	0.0	0.0	0.0	0.0	0.038218894137201816	0.0	0.0	0.0	0.0	0.0	0.0	0.0	0.0	0.0	0.0	-0.6146768348905906	0.0	0.0	0.0	0.23802992867770628	0.0	0.0	0.0	0.0	0.0	0.0	0.0	0.0	0.0	0.0	0.0	-0.04801559832388974	0.0	0.0	0.0	0.0	0.0	0.0	0.0	-0.0	0.0	0.0	0.0	0.0	0.0	0.0	0.0	0.0	0.0	0.0	0.0	0.0	0.0	0.0	0.0	0.0	0.0	0.0	0.0	0.0	-0.0	0.0	0.0	-0.012282806487942544	-0.03650508483288625	0.0	0.0	0.0	0.0	0.0	0.0	-0.0	0.0	-0.0033266030492754995	0.0	0.0	0.0	0.0	0.0	0.0	0.0	-0.0	0.0	0.0	0.0	0.0	0.0	0.0	0.0	0.0	0.0	0.0	0.0	0.0	-0.0	0.0	0.0	0.0	0.0	-0.0	0.0	0.0	0.0	0.0
ENSG00000149179	0.0	0.0	0.0	0.0	0.18040512753367105	0.0	0.0	0.0	0.0	0.0	0.0	0.0	0.0	0.0	0.0	0.0	0.0	-0.3566700658554268	0.0	0.0	0.0	0.0	0.0	0.0	0.0	0.01804934359362691	0.0	0.0	0.0	0.0	-0.0	0.0	0.0	0.0	0.0	0.0	0.0	0.0	0.0	0.0	0.0	0.0	0.0	0.0	0.0	0.0	0.0	0.0	0.0	0.0	0.0	0.0	0.0	0.0	0.0	0.0	0.0	0.0	0.0	0.0	0.0	-0.0	0.0	0.0	0.0	0.0	0.0	0.0	0.0	0.0	0.0	0.0	0.0	0.0	0.0	-0.37783954685029786	0.0	0.0	0.0	0.0	0.0	0.0	0.08506695217633485	0.0	0.0	0.0	0.0	0.0	0.0	0.0	0.0	0.0	0.0	0.0	0.0	-0.0	0.0	0.0	0.0	-0.0	0.0	0.0	0.0	0.0	0.0	0.0	0.0	0.0	0.0	0.0	0.0	0.0	0.0	-0.3951032426599554	-0.0	-0.0	0.0	0.0	0.0	0.0	-0.0	0.0	0.0	0.0	0.0	0.0	0.0	0.035588111102196	0.0	0.0	0.0	0.0	0.10207341472931537	0.0	0.0	0.0	0.0	0.0	0.0	0.0	0.0	0.0	0.0	0.4407304908301691	0.0653508838703322	0.0	0.0	0.0	0.0	0.0	-0.01848793221134168	0.0	0.0	0.0	0.0	0.0	0.0	0.0	0.0	0.0	0.0	0.5050756253859752	0.0	0.0	0.0	-0.25441601161461674	0.0	0.0	0.0	0.0	0.0	0.0	0.0	0.0	0.0	0.0	0.0	0.03842072011892871	0.0	0.0	0.0	0.0	0.0	0.0	0.0	-0.0	0.0	0.0	0.0	0.0	0.0	0.0	0.0	0.0	0.0	0.0	0.0	0.0	0.0	0.0	0.0	0.0	0.0	0.0	0.0	0.0	-0.0	0.0	0.0	0.011876471843149832	0.042487341721089714	0.0	0.0	0.0	0.0	0.0	0.0	-0.0	0.0	0.004039764585637087	0.0	0.0	0.0	0.0	0.0	0.0	0.0	-0.0	0.0	0.0	0.0	0.0	0.0	0.0	0.0	0.0	0.0	0.0	0.0	0.0	-0.0	0.0	0.0	0.0	0.0	-0.0	0.0	0.0	0.0	0.0
ENSG00000025434	0.0	0.0	0.0	0.0	0.20673586183835554	0.0	0.0	0.0	0.0	0.0	0.0	0.0	0.0	0.0	0.0	0.0	0.0	-0.14339450071780915	0.0	0.0	0.0	0.0	0.0	0.0	0.0	-0.0828168733496615	0.0	0.0	0.0	0.0	-0.0	0.0	0.0	0.0	0.0	0.0	0.0	0.0	0.0	0.0	0.0	0.0	0.0	0.0	0.0	0.0	0.0	0.0	0.0	0.0	0.0	0.0	0.0	0.0	0.0	0.0	0.0	0.0	0.0	0.0	0.0	-0.0	0.0	0.0	0.0	0.0	0.0	0.0	0.0	0.0	0.0	0.0	0.0	0.0	0.0	-0.6168489747739712	0.0	0.0	0.0	0.0	0.0	0.0	0.20348115312283283	0.0	0.0	0.0	0.0	0.0	0.0	0.0	0.0	0.0	0.0	0.0	0.0	-0.0	0.0	0.0	0.0	-0.0	0.0	0.0	0.0	0.0	0.0	0.0	0.0	0.0	0.0	0.0	0.0	0.0	0.0	0.676273747693096	-0.0	-0.0	0.0	0.0	0.0	0.0	-0.0	0.0	0.0	0.0	0.0	0.0	0.0	-0.012458120072909354	0.0	0.0	0.0	0.0	-0.15278442813489454	0.0	0.0	0.0	0.0	0.0	0.0	0.0	0.0	0.0	0.0	-0.05325763197287917	0.056717133026709166	0.0	0.0	0.0	0.0	0.0	0.06939311254086937	0.0	0.0	0.0	0.0	0.0	0.0	0.0	0.0	0.0	0.0	-0.0018796656251616136	0.0	0.0	0.0	0.12623363906135335	0.0	0.0	0.0	0.0	0.0	0.0	0.0	0.0	0.0	0.0	0.0	0.0046995245514487695	0.0	0.0	0.0	0.0	0.0	0.0	0.0	-0.0	0.0	0.0	0.0	0.0	0.0	0.0	0.0	0.0	0.0	0.0	0.0	0.0	0.0	0.0	0.0	0.0	0.0	0.0	0.0	0.0	-0.0	0.0	0.0	-0.015760910142197784	4.419249451238225E-4	0.0	0.0	0.0	0.0	0.0	0.0	-0.0	0.0	0.0031931442906941317	0.0	0.0	0.0	0.0	0.0	0.0	0.0	-0.0	0.0	0.0	0.0	0.0	0.0	0.0	0.0	0.0	0.0	0.0	0.0	0.0	-0.0	0.0	0.0	0.0	0.0	-0.0	0.0	0.0	0.0	0.0
ENSG00000165915	0.0	0.0	0.0	0.0	0.29259132114910585	0.0	0.0	0.0	0.0	0.0	0.0	0.0	0.0	0.0	0.0	0.0	0.0	0.07238779117878404	0.0	0.0	0.0	0.0	0.0	0.0	0.0	-0.26141913235958114	0.0	0.0	0.0	0.0	-0.0	0.0	0.0	0.0	0.0	0.0	0.0	0.0	0.0	0.0	0.0	0.0	0.0	0.0	0.0	0.0	0.0	0.0	0.0	0.0	0.0	0.0	0.0	0.0	0.0	0.0	0.0	0.0	0.0	0.0	0.0	-0.0	0.0	0.0	0.0	0.0	0.0	0.0	0.0	0.0	0.0	0.0	0.0	0.0	0.0	0.009532534848603261	0.0	0.0	0.0	0.0	0.0	0.0	0.041172270531418566	0.0	0.0	0.0	0.0	0.0	0.0	0.0	0.0	0.0	0.0	0.0	0.0	-0.0	0.0	0.0	0.0	-0.0	0.0	0.0	0.0	0.0	0.0	0.0	0.0	0.0	0.0	0.0	0.0	0.0	0.0	0.16240759702033206	-0.0	-0.0	0.0	0.0	0.0	0.0	-0.0	0.0	0.0	0.0	0.0	0.0	0.0	0.05692987983745248	0.0	0.0	0.0	0.0	0.6768699026924205	0.0	0.0	0.0	0.0	0.0	0.0	0.0	0.0	0.0	0.0	-0.06154532550374991	-0.2601754255029791	0.0	0.0	0.0	0.0	0.0	-0.3392954304354435	0.0	0.0	0.0	0.0	0.0	0.0	0.0	0.0	0.0	0.0	-0.1644297502067223	0.0	0.0	0.0	-0.3640043442234238	0.0	0.0	0.0	0.0	0.0	0.0	0.0	0.0	0.0	0.0	0.0	-0.027566090189202922	0.0	0.0	0.0	0.0	0.0	0.0	0.0	-0.0	0.0	0.0	0.0	0.0	0.0	0.0	0.0	0.0	0.0	0.0	0.0	0.0	0.0	0.0	0.0	0.0	0.0	0.0	0.0	0.0	-0.0	0.0	0.0	-0.042338352774122893	0.01324697630851321	0.0	0.0	0.0	0.0	0.0	0.0	-0.0	0.0	0.04888305677014104	0.0	0.0	0.0	0.0	0.0	0.0	0.0	-0.0	0.0	0.0	0.0	0.0	0.0	0.0	0.0	0.0	0.0	0.0	0.0	0.0	-0.0	0.0	0.0	0.0	0.0	-0.0	0.0	0.0	0.0	0.0
ENSG00000110536	0.0	0.0	0.0	0.0	0.3113394353517958	0.0	0.0	0.0	0.0	0.0	0.0	0.0	0.0	0.0	0.0	0.0	0.0	0.09750393444248444	0.0	0.0	0.0	0.0	0.0	0.0	0.0	-0.31064091743788497	0.0	0.0	0.0	0.0	-0.0	0.0	0.0	0.0	0.0	0.0	0.0	0.0	0.0	0.0	0.0	0.0	0.0	0.0	0.0	0.0	0.0	0.0	0.0	0.0	0.0	0.0	0.0	0.0	0.0	0.0	0.0	0.0	0.0	0.0	0.0	-0.0	0.0	0.0	0.0	0.0	0.0	0.0	0.0	0.0	0.0	0.0	0.0	0.0	0.0	0.08620795050551061	0.0	0.0	0.0	0.0	0.0	0.0	-0.036933310372780755	0.0	0.0	0.0	0.0	0.0	0.0	0.0	0.0	0.0	0.0	0.0	0.0	-0.0	0.0	0.0	0.0	-0.0	0.0	0.0	0.0	0.0	0.0	0.0	0.0	0.0	0.0	0.0	0.0	0.0	0.0	-0.0696454986917119	-0.0	-0.0	0.0	0.0	0.0	0.0	-0.0	0.0	0.0	0.0	0.0	0.0	0.0	0.01177774571916339	0.0	0.0	0.0	0.0	0.13344980555825847	0.0	0.0	0.0	0.0	0.0	0.0	0.0	0.0	0.0	0.0	-0.05231952841498022	0.07526269899395979	0.0	0.0	0.0	0.0	0.0	0.30232813490269855	0.0	0.0	0.0	0.0	0.0	0.0	0.0	0.0	0.0	0.0	0.13682535301319326	0.0	0.0	0.0	0.27709058380243956	0.0	0.0	0.0	0.0	0.0	0.0	0.0	0.0	0.0	0.0	0.0	-0.06507617962749107	0.0	0.0	0.0	0.0	0.0	0.0	0.0	-0.0	0.0	0.0	0.0	0.0	0.0	0.0	0.0	0.0	0.0	0.0	0.0	0.0	0.0	0.0	0.0	0.0	0.0	0.0	0.0	0.0	-0.0	0.0	0.0	0.7002555246018113	-0.07972423595953233	0.0	0.0	0.0	0.0	0.0	0.0	-0.0	0.0	0.2630891066335736	0.0	0.0	0.0	0.0	0.0	0.0	0.0	-0.0	0.0	0.0	0.0	0.0	0.0	0.0	0.0	0.0	0.0	0.0	0.0	0.0	-0.0	0.0	0.0	0.0	0.0	-0.0	0.0	0.0	0.0	0.0
ENSG00000231880	0.0	0.0	0.0	0.0	0.3013028891266922	0.0	0.0	0.0	0.0	0.0	0.0	0.0	0.0	0.0	0.0	0.0	0.0	0.09503802091395236	0.0	0.0	0.0	0.0	0.0	0.0	0.0	-0.3185828940691986	0.0	0.0	0.0	0.0	-0.0	0.0	0.0	0.0	0.0	0.0	0.0	0.0	0.0	0.0	0.0	0.0	0.0	0.0	0.0	0.0	0.0	0.0	0.0	0.0	0.0	0.0	0.0	0.0	0.0	0.0	0.0	0.0	0.0	0.0	0.0	-0.0	0.0	0.0	0.0	0.0	0.0	0.0	0.0	0.0	0.0	0.0	0.0	0.0	0.0	0.11167343116272153	0.0	0.0	0.0	0.0	0.0	0.0	-0.03162271413492619	0.0	0.0	0.0	0.0	0.0	0.0	0.0	0.0	0.0	0.0	0.0	0.0	-0.0	0.0	0.0	0.0	-0.0	0.0	0.0	0.0	0.0	0.0	0.0	0.0	0.0	0.0	0.0	0.0	0.0	0.0	-0.0918282084918355	-0.0	-0.0	0.0	0.0	0.0	0.0	-0.0	0.0	0.0	0.0	0.0	0.0	0.0	0.03275873609720613	0.0	0.0	0.0	0.0	0.18050320952980664	0.0	0.0	0.0	0.0	0.0	0.0	0.0	0.0	0.0	0.0	-0.04410991324274297	0.17657914753369355	0.0	0.0	0.0	0.0	0.0	0.2932837812725024	0.0	0.0	0.0	0.0	0.0	0.0	0.0	0.0	0.0	0.0	0.1849285659099313	0.0	0.0	0.0	0.38444614784776987	0.0	0.0	0.0	0.0	0.0	0.0	0.0	0.0	0.0	0.0	0.0	-0.08915981800851608	0.0	0.0	0.0	0.0	0.0	0.0	0.0	-0.0	0.0	0.0	0.0	0.0	0.0	0.0	0.0	0.0	0.0	0.0	0.0	0.0	0.0	0.0	0.0	0.0	0.0	0.0	0.0	0.0	-0.0	0.0	0.0	-0.6454284119088756	0.08328509227874943	0.0	0.0	0.0	0.0	0.0	0.0	-0.0	0.0	-0.10261083141548238	0.0	0.0	0.0	0.0	0.0	0.0	0.0	-0.0	0.0	0.0	0.0	0.0	0.0	0.0	0.0	0.0	0.0	0.0	0.0	0.0	-0.0	0.0	0.0	0.0	0.0	-0.0	0.0	0.0	0.0	0.0
ENSG00000165923	0.0	0.0	0.0	0.0	0.3165108398417379	0.0	0.0	0.0	0.0	0.0	0.0	0.0	0.0	0.0	0.0	0.0	0.0	0.08997226425123402	0.0	0.0	0.0	0.0	0.0	0.0	0.0	-0.3061404006480337	0.0	0.0	0.0	0.0	-0.0	0.0	0.0	0.0	0.0	0.0	0.0	0.0	0.0	0.0	0.0	0.0	0.0	0.0	0.0	0.0	0.0	0.0	0.0	0.0	0.0	0.0	0.0	0.0	0.0	0.0	0.0	0.0	0.0	0.0	0.0	-0.0	0.0	0.0	0.0	0.0	0.0	0.0	0.0	0.0	0.0	0.0	0.0	0.0	0.0	0.06701769996850504	0.0	0.0	0.0	0.0	0.0	0.0	-0.023464842648976247	0.0	0.0	0.0	0.0	0.0	0.0	0.0	0.0	0.0	0.0	0.0	0.0	-0.0	0.0	0.0	0.0	-0.0	0.0	0.0	0.0	0.0	0.0	0.0	0.0	0.0	0.0	0.0	0.0	0.0	0.0	-0.07239443814952819	-0.0	-0.0	0.0	0.0	0.0	0.0	-0.0	0.0	0.0	0.0	0.0	0.0	0.0	-0.01793642339570912	0.0	0.0	0.0	0.0	-0.32424343081887913	0.0	0.0	0.0	0.0	0.0	0.0	0.0	0.0	0.0	0.0	0.021317904243376172	0.10146995881071447	0.0	0.0	0.0	0.0	0.0	-0.10769999010145102	0.0	0.0	0.0	0.0	0.0	0.0	0.0	0.0	0.0	0.0	-0.1145621576042759	0.0	0.0	0.0	-0.19715407311535765	0.0	0.0	0.0	0.0	0.0	0.0	0.0	0.0	0.0	0.0	0.0	0.05930388102536318	0.0	0.0	0.0	0.0	0.0	0.0	0.0	-0.0	0.0	0.0	0.0	0.0	0.0	0.0	0.0	0.0	0.0	0.0	0.0	0.0	0.0	0.0	0.0	0.0	0.0	0.0	0.0	0.0	-0.0	0.0	0.0	0.18607811213852482	0.028478173585684167	0.0	0.0	0.0	0.0	0.0	0.0	-0.0	0.0	-0.7542999146477382	0.0	0.0	0.0	0.0	0.0	0.0	0.0	-0.0	0.0	0.0	0.0	0.0	0.0	0.0	0.0	0.0	0.0	0.0	0.0	0.0	-0.0	0.0	0.0	0.0	0.0	-0.0	0.0	0.0	0.0	0.0
ENSG00000109920	0.0	0.0	0.0	0.0	0.3089338672018656	0.0	0.0	0.0	0.0	0.0	0.0	0.0	0.0	0.0	0.0	0.0	0.0	0.0887978745286177	0.0	0.0	0.0	0.0	0.0	0.0	0.0	-0.28486880345620175	0.0	0.0	0.0	0.0	-0.0	0.0	0.0	0.0	0.0	0.0	0.0	0.0	0.0	0.0	0.0	0.0	0.0	0.0	0.0	0.0	0.0	0.0	0.0	0.0	0.0	0.0	0.0	0.0	0.0	0.0	0.0	0.0	0.0	0.0	0.0	-0.0	0.0	0.0	0.0	0.0	0.0	0.0	0.0	0.0	0.0	0.0	0.0	0.0	0.0	0.06840301216061369	0.0	0.0	0.0	0.0	0.0	0.0	-0.05326740750238947	0.0	0.0	0.0	0.0	0.0	0.0	0.0	0.0	0.0	0.0	0.0	0.0	-0.0	0.0	0.0	0.0	-0.0	0.0	0.0	0.0	0.0	0.0	0.0	0.0	0.0	0.0	0.0	0.0	0.0	0.0	-0.08998522210174988	-0.0	-0.0	0.0	0.0	0.0	0.0	-0.0	0.0	0.0	0.0	0.0	0.0	0.0	7.764898169780819E-4	0.0	0.0	0.0	0.0	-0.5065984231801401	0.0	0.0	0.0	0.0	0.0	0.0	0.0	0.0	0.0	0.0	0.0699411117202822	0.07850244222205217	0.0	0.0	0.0	0.0	0.0	-0.17301916634175715	0.0	0.0	0.0	0.0	0.0	0.0	0.0	0.0	0.0	0.0	-0.16229486772452612	0.0	0.0	0.0	-0.2617003739923035	0.0	0.0	0.0	0.0	0.0	0.0	0.0	0.0	0.0	0.0	0.0	0.16128122392618635	0.0	0.0	0.0	0.0	0.0	0.0	0.0	-0.0	0.0	0.0	0.0	0.0	0.0	0.0	0.0	0.0	0.0	0.0	0.0	0.0	0.0	0.0	0.0	0.0	0.0	0.0	0.0	0.0	-0.0	0.0	0.0	-0.20246199733077191	-0.05452823527445816	0.0	0.0	0.0	0.0	0.0	0.0	-0.0	0.0	0.5809266024352424	0.0	0.0	0.0	0.0	0.0	0.0	0.0	-0.0	0.0	0.0	0.0	0.0	0.0	0.0	0.0	0.0	0.0	0.0	0.0	0.0	-0.0	0.0	0.0	0.0	0.0	-0.0	0.0	0.0	0.0	0.0
ENSG00000149177	0.0	0.0	0.0	0.0	0.29910331277177277	0.0	0.0	0.0	0.0	0.0	0.0	0.0	0.0	0.0	0.0	0.0	0.0	0.14698090064184433	0.0	0.0	0.0	0.0	0.0	0.0	0.0	0.21317553326163702	0.0	0.0	0.0	0.0	-0.0	0.0	0.0	0.0	0.0	0.0	0.0	0.0	0.0	0.0	0.0	0.0	0.0	0.0	0.0	0.0	0.0	0.0	0.0	0.0	0.0	0.0	0.0	0.0	0.0	0.0	0.0	0.0	0.0	0.0	0.0	-0.0	0.0	0.0	0.0	0.0	0.0	0.0	0.0	0.0	0.0	0.0	0.0	0.0	0.0	0.07282323452778043	0.0	0.0	0.0	0.0	0.0	0.0	0.15140781067834067	0.0	0.0	0.0	0.0	0.0	0.0	0.0	0.0	0.0	0.0	0.0	0.0	-0.0	0.0	0.0	0.0	-0.0	0.0	0.0	0.0	0.0	0.0	0.0	0.0	0.0	0.0	0.0	0.0	0.0	0.0	-0.03852187328222378	-0.0	-0.0	0.0	0.0	0.0	0.0	-0.0	0.0	0.0	0.0	0.0	0.0	0.0	-0.27197411506586544	0.0	0.0	0.0	0.0	-0.12020372216675543	0.0	0.0	0.0	0.0	0.0	0.0	0.0	0.0	0.0	0.0	0.14177458297743611	-0.5065734221682195	0.0	0.0	0.0	0.0	0.0	-0.40968100378886946	0.0	0.0	0.0	0.0	0.0	0.0	0.0	0.0	0.0	0.0	0.18537580331329828	0.0	0.0	0.0	0.4741189131417398	0.0	0.0	0.0	0.0	0.0	0.0	0.0	0.0	0.0	0.0	0.0	0.14452087086195856	0.0	0.0	0.0	0.0	0.0	0.0	0.0	-0.0	0.0	0.0	0.0	0.0	0.0	0.0	0.0	0.0	0.0	0.0	0.0	0.0	0.0	0.0	0.0	0.0	0.0	0.0	0.0	0.0	-0.0	0.0	0.0	0.005796141738891608	0.011735615006620338	0.0	0.0	0.0	0.0	0.0	0.0	-0.0	0.0	-0.024371174481587765	0.0	0.0	0.0	0.0	0.0	0.0	0.0	-0.0	0.0	0.0	0.0	0.0	0.0	0.0	0.0	0.0	0.0	0.0	0.0	0.0	-0.0	0.0	0.0	0.0	0.0	-0.0	0.0	0.0	0.0	0.0
ENSG00000176567	0.0	0.0	0.0	0.0	0.2184973750719479	0.0	0.0	0.0	0.0	0.0	0.0	0.0	0.0	0.0	0.0	0.0	0.0	0.1350850568856427	0.0	0.0	0.0	0.0	0.0	0.0	0.0	0.3616101602274795	0.0	0.0	0.0	0.0	-0.0	0.0	0.0	0.0	0.0	0.0	0.0	0.0	0.0	0.0	0.0	0.0	0.0	0.0	0.0	0.0	0.0	0.0	0.0	0.0	0.0	0.0	0.0	0.0	0.0	0.0	0.0	0.0	0.0	0.0	0.0	-0.0	0.0	0.0	0.0	0.0	0.0	0.0	0.0	0.0	0.0	0.0	0.0	0.0	0.0	0.07359994433726504	0.0	0.0	0.0	0.0	0.0	0.0	0.3359652154226816	0.0	0.0	0.0	0.0	0.0	0.0	0.0	0.0	0.0	0.0	0.0	0.0	-0.0	0.0	0.0	0.0	-0.0	0.0	0.0	0.0	0.0	0.0	0.0	0.0	0.0	0.0	0.0	0.0	0.0	0.0	-0.03311659328108625	-0.0	-0.0	0.0	0.0	0.0	0.0	-0.0	0.0	0.0	0.0	0.0	0.0	0.0	-0.38604234638214724	0.0	0.0	0.0	0.0	0.2033120221739169	0.0	0.0	0.0	0.0	0.0	0.0	0.0	0.0	0.0	0.0	-0.10650888588601162	0.6276984184201055	0.0	0.0	0.0	0.0	0.0	-0.08314214492457048	0.0	0.0	0.0	0.0	0.0	0.0	0.0	0.0	0.0	0.0	-0.0755215661977415	0.0	0.0	0.0	-0.05326404662840659	0.0	0.0	0.0	0.0	0.0	0.0	0.0	0.0	0.0	0.0	0.0	0.266648829408348	0.0	0.0	0.0	0.0	0.0	0.0	0.0	-0.0	0.0	0.0	0.0	0.0	0.0	0.0	0.0	0.0	0.0	0.0	0.0	0.0	0.0	0.0	0.0	0.0	0.0	0.0	0.0	0.0	-0.0	0.0	0.0	0.027178956491917174	-0.007952051000713172	0.0	0.0	0.0	0.0	0.0	0.0	-0.0	0.0	0.02814427577435237	0.0	0.0	0.0	0.0	0.0	0.0	0.0	-0.0	0.0	0.0	0.0	0.0	0.0	0.0	0.0	0.0	0.0	0.0	0.0	0.0	-0.0	0.0	0.0	0.0	0.0	-0.0	0.0	0.0	0.0	0.0
ENSG00000176555	0.0	0.0	0.0	0.0	0.2816406333040617	0.0	0.0	0.0	0.0	0.0	0.0	0.0	0.0	0.0	0.0	0.0	0.0	0.14370193950201227	0.0	0.0	0.0	0.0	0.0	0.0	0.0	0.29977927284820793	0.0	0.0	0.0	0.0	-0.0	0.0	0.0	0.0	0.0	0.0	0.0	0.0	0.0	0.0	0.0	0.0	0.0	0.0	0.0	0.0	0.0	0.0	0.0	0.0	0.0	0.0	0.0	0.0	0.0	0.0	0.0	0.0	0.0	0.0	0.0	-0.0	0.0	0.0	0.0	0.0	0.0	0.0	0.0	0.0	0.0	0.0	0.0	0.0	0.0	0.07265518241516337	0.0	0.0	0.0	0.0	0.0	0.0	0.20453508266840661	0.0	0.0	0.0	0.0	0.0	0.0	0.0	0.0	0.0	0.0	0.0	0.0	-0.0	0.0	0.0	0.0	-0.0	0.0	0.0	0.0	0.0	0.0	0.0	0.0	0.0	0.0	0.0	0.0	0.0	0.0	-0.0024673754722328227	-0.0	-0.0	0.0	0.0	0.0	0.0	-0.0	0.0	0.0	0.0	0.0	0.0	0.0	-0.20836978124105934	0.0	0.0	0.0	0.0	-0.12940841152380952	0.0	0.0	0.0	0.0	0.0	0.0	0.0	0.0	0.0	0.0	0.023722201107765916	-0.1986785091725596	0.0	0.0	0.0	0.0	0.0	0.32642060317808147	0.0	0.0	0.0	0.0	0.0	0.0	0.0	0.0	0.0	0.0	-0.032950122966128696	0.0	0.0	0.0	-0.3015900872893134	0.0	0.0	0.0	0.0	0.0	0.0	0.0	0.0	0.0	0.0	0.0	-0.6794641022382222	0.0	0.0	0.0	0.0	0.0	0.0	0.0	-0.0	0.0	0.0	0.0	0.0	0.0	0.0	0.0	0.0	0.0	0.0	0.0	0.0	0.0	0.0	0.0	0.0	0.0	0.0	0.0	0.0	-0.0	0.0	0.0	-0.04603453119889756	-0.005144478247336287	0.0	0.0	0.0	0.0	0.0	0.0	-0.0	0.0	0.020761100333301353	0.0	0.0	0.0	0.0	0.0	0.0	0.0	-0.0	0.0	0.0	0.0	0.0	0.0	0.0	0.0	0.0	0.0	0.0	0.0	0.0	-0.0	0.0	0.0	0.0	0.0	-0.0	0.0	0.0	0.0	0.0
ENSG00000237388	0.0	0.0	0.0	0.0	0.26044670284235516	0.0	0.0	0.0	0.0	0.0	0.0	0.0	0.0	0.0	0.0	0.0	0.0	0.15320268500648054	0.0	0.0	0.0	0.0	0.0	0.0	0.0	0.33749709617779483	0.0	0.0	0.0	0.0	-0.0	0.0	0.0	0.0	0.0	0.0	0.0	0.0	0.0	0.0	0.0	0.0	0.0	0.0	0.0	0.0	0.0	0.0	0.0	0.0	0.0	0.0	0.0	0.0	0.0	0.0	0.0	0.0	0.0	0.0	0.0	-0.0	0.0	0.0	0.0	0.0	0.0	0.0	0.0	0.0	0.0	0.0	0.0	0.0	0.0	0.016993631296070996	0.0	0.0	0.0	0.0	0.0	0.0	0.013575392899745747	0.0	0.0	0.0	0.0	0.0	0.0	0.0	0.0	0.0	0.0	0.0	0.0	-0.0	0.0	0.0	0.0	-0.0	0.0	0.0	0.0	0.0	0.0	0.0	0.0	0.0	0.0	0.0	0.0	0.0	0.0	0.014024769345273464	-0.0	-0.0	0.0	0.0	0.0	0.0	-0.0	0.0	0.0	0.0	0.0	0.0	0.0	0.40426815824459794	0.0	0.0	0.0	0.0	0.015626595625000236	0.0	0.0	0.0	0.0	0.0	0.0	0.0	0.0	0.0	0.0	-0.03670571774369519	-0.27503237712017586	0.0	0.0	0.0	0.0	0.0	0.4710657578573675	0.0	0.0	0.0	0.0	0.0	0.0	0.0	0.0	0.0	0.0	-0.0458410071670243	0.0	0.0	0.0	-0.16091245831325	0.0	0.0	0.0	0.0	0.0	0.0	0.0	0.0	0.0	0.0	0.0	0.5477365338015707	0.0	0.0	0.0	0.0	0.0	0.0	0.0	-0.0	0.0	0.0	0.0	0.0	0.0	0.0	0.0	0.0	0.0	0.0	0.0	0.0	0.0	0.0	0.0	0.0	0.0	0.0	0.0	0.0	-0.0	0.0	0.0	-0.030381333071094505	0.022746387061524133	0.0	0.0	0.0	0.0	0.0	0.0	-0.0	0.0	-0.045852388980555596	0.0	0.0	0.0	0.0	0.0	0.0	0.0	-0.0	0.0	0.0	0.0	0.0	0.0	0.0	0.0	0.0	0.0	0.0	0.0	0.0	-0.0	0.0	0.0	0.0	0.0	-0.0	0.0	0.0	0.0	0.0
ENSG00000214891	0.0	0.0	0.0	0.0	0.24107083688821557	0.0	0.0	0.0	0.0	0.0	0.0	0.0	0.0	0.0	0.0	0.0	0.0	0.13600127918084745	0.0	0.0	0.0	0.0	0.0	0.0	0.0	0.3387214546642279	0.0	0.0	0.0	0.0	-0.0	0.0	0.0	0.0	0.0	0.0	0.0	0.0	0.0	0.0	0.0	0.0	0.0	0.0	0.0	0.0	0.0	0.0	0.0	0.0	0.0	0.0	0.0	0.0	0.0	0.0	0.0	0.0	0.0	0.0	0.0	-0.0	0.0	0.0	0.0	0.0	0.0	0.0	0.0	0.0	0.0	0.0	0.0	0.0	0.0	-0.049124930266504836	0.0	0.0	0.0	0.0	0.0	0.0	-0.17046855153005427	0.0	0.0	0.0	0.0	0.0	0.0	0.0	0.0	0.0	0.0	0.0	0.0	-0.0	0.0	0.0	0.0	-0.0	0.0	0.0	0.0	0.0	0.0	0.0	0.0	0.0	0.0	0.0	0.0	0.0	0.0	-0.006009063813218453	-0.0	-0.0	0.0	0.0	0.0	0.0	-0.0	0.0	0.0	0.0	0.0	0.0	0.0	0.6500822519430393	0.0	0.0	0.0	0.0	-0.02921022460672683	0.0	0.0	0.0	0.0	0.0	0.0	0.0	0.0	0.0	0.0	-0.025657945007883372	0.2903251136211983	0.0	0.0	0.0	0.0	0.0	-0.37682348783604575	0.0	0.0	0.0	0.0	0.0	0.0	0.0	0.0	0.0	0.0	0.020335275592216647	0.0	0.0	0.0	0.16062721982965789	0.0	0.0	0.0	0.0	0.0	0.0	0.0	0.0	0.0	0.0	0.0	-0.31385316336687513	0.0	0.0	0.0	0.0	0.0	0.0	0.0	-0.0	0.0	0.0	0.0	0.0	0.0	0.0	0.0	0.0	0.0	0.0	0.0	0.0	0.0	0.0	0.0	0.0	0.0	0.0	0.0	0.0	-0.0	0.0	0.0	0.04323568553318693	-0.005215011716555205	0.0	0.0	0.0	0.0	0.0	0.0	-0.0	0.0	0.011371662245408172	0.0	0.0	0.0	0.0	0.0	0.0	0.0	-0.0	0.0	0.0	0.0	0.0	0.0	0.0	0.0	0.0	0.0	0.0	0.0	0.0	-0.0	0.0	0.0	0.0	0.0	-0.0	0.0	0.0	0.0	0.0
ENSG00000221954	0.0	0.0	0.0	0.0	0.16749077079891136	0.0	0.0	0.0	0.0	0.0	0.0	0.0	0.0	0.0	0.0	0.0	0.0	0.08997197704976749	0.0	0.0	0.0	0.0	0.0	0.0	0.0	0.19630629119424986	0.0	0.0	0.0	0.0	-0.0	0.0	0.0	0.0	0.0	0.0	0.0	0.0	0.0	0.0	0.0	0.0	0.0	0.0	0.0	0.0	0.0	0.0	0.0	0.0	0.0	0.0	0.0	0.0	0.0	0.0	0.0	0.0	0.0	0.0	0.0	-0.0	0.0	0.0	0.0	0.0	0.0	0.0	0.0	0.0	0.0	0.0	0.0	0.0	0.0	-0.23363973427376658	0.0	0.0	0.0	0.0	0.0	0.0	-0.8460266700199477	0.0	0.0	0.0	0.0	0.0	0.0	0.0	0.0	0.0	0.0	0.0	0.0	-0.0	0.0	0.0	0.0	-0.0	0.0	0.0	0.0	0.0	0.0	0.0	0.0	0.0	0.0	0.0	0.0	0.0	0.0	0.04489714217681941	-0.0	-0.0	0.0	0.0	0.0	0.0	-0.0	0.0	0.0	0.0	0.0	0.0	0.0	-0.37447207421417933	0.0	0.0	0.0	0.0	0.07732110100467314	0.0	0.0	0.0	0.0	0.0	0.0	0.0	0.0	0.0	0.0	0.009999422066735745	0.02585440964038975	0.0	0.0	0.0	0.0	0.0	0.04819266245423946	0.0	0.0	0.0	0.0	0.0	0.0	0.0	0.0	0.0	0.0	-0.02301106311229599	0.0	0.0	0.0	-0.042078566496309616	0.0	0.0	0.0	0.0	0.0	0.0	0.0	0.0	0.0	0.0	0.0	0.031732099431014495	0.0	0.0	0.0	0.0	0.0	0.0	0.0	-0.0	0.0	0.0	0.0	0.0	0.0	0.0	0.0	0.0	0.0	0.0	0.0	0.0	0.0	0.0	0.0	0.0	0.0	0.0	0.0	0.0	-0.0	0.0	0.0	-0.014414154927380641	-0.0022463916966064586	0.0	0.0	0.0	0.0	0.0	0.0	-0.0	0.0	-0.011515474429479644	0.0	0.0	0.0	0.0	0.0	0.0	0.0	-0.0	0.0	0.0	0.0	0.0	0.0	0.0	0.0	0.0	0.0	0.0	0.0	0.0	-0.0	0.0	0.0	0.0	0.0	-0.0	0.0	0.0	0.0	0.0
ENSG00000150244	0.0	0.0	0.0	0.23044368646896204	0.0	0.0	0.0	0.0	-0.0036513656164917324	0.0	0.0	0.0	0.0	0.0	0.001317005791092971	0.0	0.0027075644715033854	0.0	0.0	0.0	0.0	0.0	0.0	0.0	0.0	0.0	0.0	0.0	0.0	0.0	-0.00803883457487531	0.0	0.0	0.0	0.0	0.0	0.0	0.0	0.0	0.0	-0.0047006248545437114	0.0	0.0	0.0	0.0	0.0	0.0383722792019693	0.0	0.0	0.0	0.0	0.07767618621684555	0.0	-0.4779076122209434	0.0	0.0	0.0	0.0	0.0	0.0	0.0	-0.0	0.0	0.0	0.0	0.0	0.0	0.0	0.0	0.0	-0.36302770132391576	0.0	0.0	0.0	-0.07443881421537753	0.0	0.0	0.02269756773148597	0.0	0.0	0.023243067426972325	0.0	0.0	0.01254859272002235	0.0	0.0	0.0	0.0	0.0	0.0	0.0	0.012681116576467843	0.0	0.0	0.0	-0.0	0.0	0.22140659027554094	0.0	-0.0	0.0	0.0	0.0	0.0	0.0	0.0	0.01116621990881406	0.0	0.0	0.0	0.0	0.0	0.0	0.0	-0.0	-0.0	0.0	0.0	0.0	0.0	-0.0	0.0	0.0	0.0	0.002644086805958674	-0.008704034071826088	0.0	0.0	0.21981961683056703	0.0	0.0	0.0	0.0	0.0	0.0	-0.12213431322293739	0.0	0.0	0.0	-0.026185732310164696	0.004220837048932118	0.0	0.0	0.0	0.0	0.0	0.0	0.0	0.0	0.0	0.0	0.0	0.0	-0.03966412376717175	0.0	0.0	0.0	0.0	0.0	0.0	-0.0073274057332661235	-0.0	0.0	0.0	0.0	0.0	0.0	0.0	0.10021759043921871	0.0	0.0	0.0	0.11157325654271516	0.0	0.0	0.0	0.0	0.0	0.0	0.0	0.0	0.0	0.034545516497047915	0.0	0.0	-0.0	0.0	0.2110031879658025	0.0	0.0	0.5815588500747589	0.0015862003998552846	0.0	0.0	0.0	0.0	0.0	0.0	0.0	0.0	0.020883791340221152	0.0538448320444518	0.0	-0.2161551273088856	0.0	-7.426110942189534E-4	-0.0	0.0	0.0	-0.0	0.0	0.0	0.0	0.0	0.0	-0.0030237579426218054	-0.004404524402010305	-0.0	0.0	0.0	0.0	0.0	0.0	0.0	0.029424151820047637	0.0	0.0	-0.0	0.0	-0.0028700639384800597	0.0	0.0	0.0	0.0	0.0	0.0	0.0	0.0	0.0	0.0	-0.0	0.0	0.0	0.0	0.0	-0.0	0.0014384419773033406	0.0	0.0	0.0
ENSG00000181958	0.0	0.0	0.0	0.2440995808408592	0.0	0.0	0.0	0.0	-0.004256754832469736	0.0	0.0	0.0	0.0	0.0	-7.820493790101557E-4	0.0	0.0011202908730762072	0.0	0.0	0.0	0.0	0.0	0.0	0.0	0.0	0.0	0.0	0.0	0.0	0.0	-0.008432673748766162	0.0	0.0	0.0	0.0	0.0	0.0	0.0	0.0	0.0	-0.0011382369032965954	0.0	0.0	0.0	0.0	0.0	0.03513797509418768	0.0	0.0	0.0	0.0	0.0841067665408306	0.0	-0.47684631708861974	0.0	0.0	0.0	0.0	0.0	0.0	0.0	-0.0	0.0	0.0	0.0	0.0	0.0	0.0	0.0	0.0	-0.3060577222678872	0.0	0.0	0.0	-0.05502824188932338	0.0	0.0	0.022659989372160485	0.0	0.0	0.018729856703211752	0.0	0.0	0.003878420293388222	0.0	0.0	0.0	0.0	0.0	0.0	0.0	-0.0035177150554329233	0.0	0.0	0.0	-0.0	0.0	0.12231540952589698	0.0	-0.0	0.0	0.0	0.0	0.0	0.0	0.0	0.010229986845894648	0.0	0.0	0.0	0.0	0.0	0.0	0.0	-0.0	-0.0	0.0	0.0	0.0	0.0	-0.0	0.0	0.0	0.0	0.012411850568356557	-0.008157451834416764	0.0	0.0	0.11603454689583327	0.0	0.0	0.0	0.0	0.0	0.0	-0.18313883120091629	0.0	0.0	0.0	-0.026569143680578017	0.003913726459019405	0.0	0.0	0.0	0.0	0.0	0.0	0.0	0.0	0.0	0.0	0.0	0.0	-0.08015450008916286	0.0	0.0	0.0	0.0	0.0	0.0	0.0016875368732393401	-0.0	0.0	0.0	0.0	0.0	0.0	0.0	-0.21759473159919196	0.0	0.0	0.0	-0.14367100158142673	0.0	0.0	0.0	0.0	0.0	0.0	0.0	0.0	0.0	-0.030804079361331647	0.0	0.0	-0.0	0.0	-0.23195301311192162	0.0	0.0	-0.6165324127024877	-0.003939567214726284	0.0	0.0	0.0	0.0	0.0	0.0	0.0	0.0	-0.024983100805978896	-0.04720981713844048	0.0	0.17730489769319677	0.0	0.006547794116002836	-0.0	0.0	0.0	-0.0	0.0	0.0	0.0	0.0	0.0	0.005908134077685123	0.007192026506762095	-0.0	0.0	0.0	0.0	0.0	0.0	0.0	0.01762314800561495	0.0	0.0	-0.0	0.0	-0.0015848350482704843	0.0	0.0	0.0	0.0	0.0	0.0	0.0	0.0	0.0	0.0	-0.0	0.0	0.0	0.0	0.0	-0.0	-0.0012855081567330541	0.0	0.0	0.0
ENSG00000186119	0.0	0.0	0.0	0.29293916120415975	0.0	0.0	0.0	0.0	-4.694506908929105E-4	0.0	0.0	0.0	0.0	0.0	1.3433413429829237E-5	0.0	-7.22732132614979E-4	0.0	0.0	0.0	0.0	0.0	0.0	0.0	0.0	0.0	0.0	0.0	0.0	0.0	-0.008595840143898548	0.0	0.0	0.0	0.0	0.0	0.0	0.0	0.0	0.0	0.005159245507906687	0.0	0.0	0.0	0.0	0.0	0.017459977677950437	0.0	0.0	0.0	0.0	0.05348874289758395	0.0	-0.22202458853742044	0.0	0.0	0.0	0.0	0.0	0.0	0.0	-0.0	0.0	0.0	0.0	0.0	0.0	0.0	0.0	0.0	0.06272814294526177	0.0	0.0	0.0	0.0076073977082371765	0.0	0.0	-0.003982274152729436	0.0	0.0	-0.02150302394141463	0.0	0.0	-0.010367228360742414	0.0	0.0	0.0	0.0	0.0	0.0	0.0	-0.019969173798101852	0.0	0.0	0.0	-0.0	0.0	-0.24382279371403937	0.0	-0.0	0.0	0.0	0.0	0.0	0.0	0.0	-0.009957880728489401	0.0	0.0	0.0	0.0	0.0	0.0	0.0	-0.0	-0.0	0.0	0.0	0.0	0.0	-0.0	0.0	0.0	0.0	-0.02060199462841559	0.02314963756811198	0.0	0.0	-0.3396056482207487	0.0	0.0	0.0	0.0	0.0	0.0	0.34850544501735997	0.0	0.0	0.0	0.06584121119832338	0.008209147592659874	0.0	0.0	0.0	0.0	0.0	0.0	0.0	0.0	0.0	0.0	0.0	0.0	0.28973060525181815	0.0	0.0	0.0	0.0	0.0	0.0	-0.010271383877768799	-0.0	0.0	0.0	0.0	0.0	0.0	0.0	-0.21841070254633443	0.0	0.0	0.0	0.011806614955068923	0.0	0.0	0.0	0.0	0.0	0.0	0.0	0.0	0.0	-0.01890184455241349	0.0	0.0	-0.0	0.0	-0.5795386445417197	0.0	0.0	0.28795141594866813	-0.025090147171092182	0.0	0.0	0.0	0.0	0.0	0.0	0.0	0.0	0.017116976960455096	0.0012032535329415223	0.0	-0.0337763302998641	0.0	-0.016051564265391484	-0.0	0.0	0.0	-0.0	0.0	0.0	0.0	0.0	0.0	-0.004944312496773866	-0.0023374509328686305	-0.0	0.0	0.0	0.0	0.0	0.0	0.0	-0.03946030251183576	0.0	0.0	-0.0	0.0	0.0028320576489501547	0.0	0.0	0.0	0.0	0.0	0.0	0.0	0.0	0.0	0.0	-0.0	0.0	0.0	0.0	0.0	-0.0	-2.442412019947858E-4	0.0	0.0	0.0
ENSG00000124900	0.0	0.0	0.0	0.3003959619926411	0.0	0.0	0.0	0.0	-0.002176441564940669	0.0	0.0	0.0	0.0	0.0	-2.062199606162184E-4	0.0	6.143980127438842E-4	0.0	0.0	0.0	0.0	0.0	0.0	0.0	0.0	0.0	0.0	0.0	0.0	0.0	-0.007632514344746778	0.0	0.0	0.0	0.0	0.0	0.0	0.0	0.0	0.0	0.005161118721619436	0.0	0.0	0.0	0.0	0.0	0.007001587712530331	0.0	0.0	0.0	0.0	0.04498630697643873	0.0	-0.18651242073551072	0.0	0.0	0.0	0.0	0.0	0.0	0.0	-0.0	0.0	0.0	0.0	0.0	0.0	0.0	0.0	0.0	0.06962249965234958	0.0	0.0	0.0	0.008510616384926612	0.0	0.0	-0.0081650597388083	0.0	0.0	-0.00973212557647549	0.0	0.0	-2.0757411983508204E-4	0.0	0.0	0.0	0.0	0.0	0.0	0.0	-0.005500914491659067	0.0	0.0	0.0	-0.0	0.0	-0.04895143229560403	0.0	-0.0	0.0	0.0	0.0	0.0	0.0	0.0	0.004659089041711604	0.0	0.0	0.0	0.0	0.0	0.0	0.0	-0.0	-0.0	0.0	0.0	0.0	0.0	-0.0	0.0	0.0	0.0	-0.001845101632122244	0.00628227405525192	0.0	0.0	-0.42549268885432595	0.0	0.0	0.0	0.0	0.0	0.0	0.05271329356401009	0.0	0.0	0.0	0.0390958150649535	0.024774555398070552	0.0	0.0	0.0	0.0	0.0	0.0	0.0	0.0	0.0	0.0	0.0	0.0	0.45345771584944305	0.0	0.0	0.0	0.0	0.0	0.0	-0.019870336801751806	-0.0	0.0	0.0	0.0	0.0	0.0	0.0	0.3181716599768324	0.0	0.0	0.0	0.1674395317747788	0.0	0.0	0.0	0.0	0.0	0.0	0.0	0.0	0.0	-0.0033606060952201815	0.0	0.0	-0.0	0.0	0.520166092810003	0.0	0.0	-0.2610543750109049	0.026168328349266794	0.0	0.0	0.0	0.0	0.0	0.0	0.0	0.0	-0.005826360755168386	-0.005563512858062735	0.0	0.0625379007722652	0.0	0.005021553667842929	-0.0	0.0	0.0	-0.0	0.0	0.0	0.0	0.0	0.0	0.0035480135407214785	-0.002667384421139634	-0.0	0.0	0.0	0.0	0.0	0.0	0.0	-0.02337735215379461	0.0	0.0	-0.0	0.0	0.0010661345974132866	0.0	0.0	0.0	0.0	0.0	0.0	0.0	0.0	0.0	0.0	-0.0	0.0	0.0	0.0	0.0	-0.0	-8.542352046343244E-4	0.0	0.0	0.0
ENSG00000174970	0.0	0.0	0.0	0.3096985963555797	0.0	0.0	0.0	0.0	-0.002886375540129274	0.0	0.0	0.0	0.0	0.0	0.002794353170784406	0.0	-0.003043156192283476	0.0	0.0	0.0	0.0	0.0	0.0	0.0	0.0	0.0	0.0	0.0	0.0	0.0	0.0019908884299621433	0.0	0.0	0.0	0.0	0.0	0.0	0.0	0.0	0.0	0.011003828431259521	0.0	0.0	0.0	0.0	0.0	-0.004312930947865616	0.0	0.0	0.0	0.0	0.026603813181808066	0.0	-0.05540152992183007	0.0	0.0	0.0	0.0	0.0	0.0	0.0	-0.0	0.0	0.0	0.0	0.0	0.0	0.0	0.0	0.0	0.2566820267237257	0.0	0.0	0.0	0.04233921958887522	0.0	0.0	-0.01377682275268883	0.0	0.0	-0.021964319270591826	0.0	0.0	-0.0061849703822882815	0.0	0.0	0.0	0.0	0.0	0.0	0.0	-0.01378849076551147	0.0	0.0	0.0	-0.0	0.0	-0.24515446273894084	0.0	-0.0	0.0	0.0	0.0	0.0	0.0	0.0	-0.007610649504262787	0.0	0.0	0.0	0.0	0.0	0.0	0.0	-0.0	-0.0	0.0	0.0	0.0	0.0	-0.0	0.0	0.0	0.0	0.01745286097233084	-0.013711964587130076	0.0	0.0	-0.1659294488169	0.0	0.0	0.0	0.0	0.0	0.0	-0.09285496451734797	0.0	0.0	0.0	0.004739469405337024	-0.026763943743202536	0.0	0.0	0.0	0.0	0.0	0.0	0.0	0.0	0.0	0.0	0.0	0.0	-0.4557302344963441	0.0	0.0	0.0	0.0	0.0	0.0	0.025981148564689565	-0.0	0.0	0.0	0.0	0.0	0.0	0.0	0.00880221483977432	0.0	0.0	0.0	-0.09549632791696311	0.0	0.0	0.0	0.0	0.0	0.0	0.0	0.0	0.0	0.0054458107929438015	0.0	0.0	-0.0	0.0	0.0936625373579116	0.0	0.0	0.043225982669398616	8.342690900185728E-4	0.0	0.0	0.0	0.0	0.0	0.0	0.0	0.0	-0.0013051516729141429	0.010176462469530813	0.0	-0.01214161538782654	0.0	-0.0022395109489561733	-0.0	0.0	0.0	-0.0	0.0	0.0	0.0	0.0	0.0	0.010728080143514281	-0.012368029957724857	-0.0	0.0	0.0	0.0	0.0	0.0	0.0	0.7108048635226817	0.0	0.0	-0.0	0.0	-0.003378409696794665	0.0	0.0	0.0	0.0	0.0	0.0	0.0	0.0	0.0	0.0	-0.0	0.0	0.0	0.0	0.0	-0.0	-0.00166633951196486	0.0	0.0	0.0
ENSG00000149133	0.0	0.0	0.0	0.3110429337600266	0.0	0.0	0.0	0.0	-0.003747650026471212	0.0	0.0	0.0	0.0	0.0	0.0022961481122484957	0.0	-0.0020836134137445206	0.0	0.0	0.0	0.0	0.0	0.0	0.0	0.0	0.0	0.0	0.0	0.0	0.0	0.001617798176218542	0.0	0.0	0.0	0.0	0.0	0.0	0.0	0.0	0.0	0.009201694352791676	0.0	0.0	0.0	0.0	0.0	-0.004129916745842652	0.0	0.0	0.0	0.0	0.028099781070008805	0.0	-0.07759899740632338	0.0	0.0	0.0	0.0	0.0	0.0	0.0	-0.0	0.0	0.0	0.0	0.0	0.0	0.0	0.0	0.0	0.2430447779782021	0.0	0.0	0.0	0.040972859477960324	0.0	0.0	-0.011425735072369022	0.0	0.0	-0.016517262036427418	0.0	0.0	-0.008851333854159437	0.0	0.0	0.0	0.0	0.0	0.0	0.0	-0.01645215086842879	0.0	0.0	0.0	-0.0	0.0	-0.2201262262801739	0.0	-0.0	0.0	0.0	0.0	0.0	0.0	0.0	-0.006707984792676677	0.0	0.0	0.0	0.0	0.0	0.0	0.0	-0.0	-0.0	0.0	0.0	0.0	0.0	-0.0	0.0	0.0	0.0	0.020867573238154538	-0.010931219375118229	0.0	0.0	-0.0804745553366316	0.0	0.0	0.0	0.0	0.0	0.0	-0.039027580429035126	0.0	0.0	0.0	0.0022964631628151076	-0.03694304665081221	0.0	0.0	0.0	0.0	0.0	0.0	0.0	0.0	0.0	0.0	0.0	0.0	-0.5089343389131381	0.0	0.0	0.0	0.0	0.0	0.0	0.028869852211307147	-0.0	0.0	0.0	0.0	0.0	0.0	0.0	-0.06884762561361747	0.0	0.0	0.0	-0.0510152361886056	0.0	0.0	0.0	0.0	0.0	0.0	0.0	0.0	0.0	0.011752693732073053	0.0	0.0	-0.0	0.0	0.1640106578329268	0.0	0.0	0.02897183193475699	0.014343133392202747	0.0	0.0	0.0	0.0	0.0	0.0	0.0	0.0	-0.0032500145193544187	0.002062962111312085	0.0	-0.020466660389729132	0.0	0.014455077920669466	-0.0	0.0	0.0	-0.0	0.0	0.0	0.0	0.0	0.0	-0.012183421185246303	0.014428903230970139	-0.0	0.0	0.0	0.0	0.0	0.0	0.0	-0.6928933951449497	0.0	0.0	-0.0	0.0	0.0029054448111946133	0.0	0.0	0.0	0.0	0.0	0.0	0.0	0.0	0.0	0.0	-0.0	0.0	0.0	0.0	0.0	-0.0	0.0021024656405130918	0.0	0.0	0.0
ENSG00000181761	0.0	0.0	0.0	0.2832706625986141	0.0	0.0	0.0	0.0	-0.002146277669413598	0.0	0.0	0.0	0.0	0.0	0.003008171566453798	0.0	7.22866052663155E-4	0.0	0.0	0.0	0.0	0.0	0.0	0.0	0.0	0.0	0.0	0.0	0.0	0.0	0.006850490126719235	0.0	0.0	0.0	0.0	0.0	0.0	0.0	0.0	0.0	-0.0017876693410265093	0.0	0.0	0.0	0.0	0.0	-5.895707612906307E-4	0.0	0.0	0.0	0.0	-0.016361811578777873	0.0	0.03732343547335521	0.0	0.0	0.0	0.0	0.0	0.0	0.0	-0.0	0.0	0.0	0.0	0.0	0.0	0.0	0.0	0.0	0.12024009586860807	0.0	0.0	0.0	0.020590511908633362	0.0	0.0	0.008589553509825612	0.0	0.0	0.0014520856358060585	0.0	0.0	-0.007689100135234016	0.0	0.0	0.0	0.0	0.0	0.0	0.0	-0.002953021874777215	0.0	0.0	0.0	-0.0	0.0	-0.08910752450720058	0.0	-0.0	0.0	0.0	0.0	0.0	0.0	0.0	-0.02088920701066402	0.0	0.0	0.0	0.0	0.0	0.0	0.0	-0.0	-0.0	0.0	0.0	0.0	0.0	-0.0	0.0	0.0	0.0	-0.05013828765553581	0.0680457288728112	0.0	0.0	0.6413731550832041	0.0	0.0	0.0	0.0	0.0	0.0	0.6198874671697888	0.0	0.0	0.0	0.051821008757103416	-0.04525032974504594	0.0	0.0	0.0	0.0	0.0	0.0	0.0	0.0	0.0	0.0	0.0	0.0	0.033924245545040595	0.0	0.0	0.0	0.0	0.0	0.0	-0.01747274630386409	-0.0	0.0	0.0	0.0	0.0	0.0	0.0	-0.03361872841950776	0.0	0.0	0.0	0.1898908100829498	0.0	0.0	0.0	0.0	0.0	0.0	0.0	0.0	0.0	-0.0020915609791821005	0.0	0.0	-0.0	0.0	0.142966149971507	0.0	0.0	-0.13589990787878248	-0.005769783529674149	0.0	0.0	0.0	0.0	0.0	0.0	0.0	0.0	-0.006061267402947065	-0.008638148188086652	0.0	0.06180030025576806	0.0	-0.001073355066476373	-0.0	0.0	0.0	-0.0	0.0	0.0	0.0	0.0	0.0	-0.004132380874635655	-0.0035918509055948597	-0.0	0.0	0.0	0.0	0.0	0.0	0.0	0.07468746719255745	0.0	0.0	-0.0	0.0	-0.001648873170886397	0.0	0.0	0.0	0.0	0.0	0.0	0.0	0.0	0.0	0.0	-0.0	0.0	0.0	0.0	0.0	-0.0	-8.549961287971213E-5	0.0	0.0	0.0
ENSG00000181718	0.0	0.0	0.0	0.3127728519316141	0.0	0.0	0.0	0.0	-0.001845989713213116	0.0	0.0	0.0	0.0	0.0	1.4544154635875309E-4	0.0	0.002769873569762675	0.0	0.0	0.0	0.0	0.0	0.0	0.0	0.0	0.0	0.0	0.0	0.0	0.0	0.003134432821149619	0.0	0.0	0.0	0.0	0.0	0.0	0.0	0.0	0.0	9.985967571738287E-4	0.0	0.0	0.0	0.0	0.0	-0.013512464506190995	0.0	0.0	0.0	0.0	-0.026787352983993474	0.0	0.14627500231924795	0.0	0.0	0.0	0.0	0.0	0.0	0.0	-0.0	0.0	0.0	0.0	0.0	0.0	0.0	0.0	0.0	0.12636343770033256	0.0	0.0	0.0	0.020693735980999647	0.0	0.0	-0.006419544177600649	0.0	0.0	0.00820910355566951	0.0	0.0	0.010463087984871436	0.0	0.0	0.0	0.0	0.0	0.0	0.0	0.012951222115879523	0.0	0.0	0.0	-0.0	0.0	0.18902417659924903	0.0	-0.0	0.0	0.0	0.0	0.0	0.0	0.0	0.011435818187286955	0.0	0.0	0.0	0.0	0.0	0.0	0.0	-0.0	-0.0	0.0	0.0	0.0	0.0	-0.0	0.0	0.0	0.0	0.003927317021255918	-0.011841159721060552	0.0	0.0	0.15266746646363524	0.0	0.0	0.0	0.0	0.0	0.0	-0.15493709064290764	0.0	0.0	0.0	-0.03574634673736479	0.018358181953719403	0.0	0.0	0.0	0.0	0.0	0.0	0.0	0.0	0.0	0.0	0.0	0.0	0.09774896422344949	0.0	0.0	0.0	0.0	0.0	0.0	0.0013015688285617638	-0.0	0.0	0.0	0.0	0.0	0.0	0.0	0.424158772162218	0.0	0.0	0.0	-0.3036666004351438	0.0	0.0	0.0	0.0	0.0	0.0	0.0	0.0	0.0	0.01907097871375521	0.0	0.0	-0.0	0.0	-0.19490203919541066	0.0	0.0	0.2257828870434551	0.006611995939503524	0.0	0.0	0.0	0.0	0.0	0.0	0.0	0.0	-0.04866023111109975	-0.13347194288940833	0.0	0.6200918296991725	0.0	-0.0055886467077361284	-0.0	0.0	0.0	-0.0	0.0	0.0	0.0	0.0	0.0	0.0018780143119349168	-0.001834985242974945	-0.0	0.0	0.0	0.0	0.0	0.0	0.0	-0.048334770268551895	0.0	0.0	-0.0	0.0	0.0018100195219690157	0.0	0.0	0.0	0.0	0.0	0.0	0.0	0.0	0.0	0.0	-0.0	0.0	0.0	0.0	0.0	-0.0	-0.0013534012664295264	0.0	0.0	0.0
ENSG00000181693	0.0	0.0	0.0	0.31140008861160995	0.0	0.0	0.0	0.0	-0.0013966945119328691	0.0	0.0	0.0	0.0	0.0	-0.0018429416090706729	0.0	0.0017976417907791917	0.0	0.0	0.0	0.0	0.0	0.0	0.0	0.0	0.0	0.0	0.0	0.0	0.0	4.3971971537026404E-4	0.0	0.0	0.0	0.0	0.0	0.0	0.0	0.0	0.0	-8.297144747480422E-4	0.0	0.0	0.0	0.0	0.0	-0.019234234999232356	0.0	0.0	0.0	0.0	-0.02781818697390455	0.0	0.16268233150518782	0.0	0.0	0.0	0.0	0.0	0.0	0.0	-0.0	0.0	0.0	0.0	0.0	0.0	0.0	0.0	0.0	0.19018209309657078	0.0	0.0	0.0	0.030676563887101275	0.0	0.0	-0.010916611055083958	0.0	0.0	8.529084687387218E-4	0.0	0.0	-0.0020853619457229184	0.0	0.0	0.0	0.0	0.0	0.0	0.0	0.006467199754167007	0.0	0.0	0.0	-0.0	0.0	0.07980111224881264	0.0	-0.0	0.0	0.0	0.0	0.0	0.0	0.0	0.005854578092699031	0.0	0.0	0.0	0.0	0.0	0.0	0.0	-0.0	-0.0	0.0	0.0	0.0	0.0	-0.0	0.0	0.0	0.0	0.0026823612805435076	-0.01853864798558689	0.0	0.0	0.1923311222988272	0.0	0.0	0.0	0.0	0.0	0.0	-0.19491239573736738	0.0	0.0	0.0	-0.0432986996748242	0.026335798837639385	0.0	0.0	0.0	0.0	0.0	0.0	0.0	0.0	0.0	0.0	0.0	0.0	0.19890915881668197	0.0	0.0	0.0	0.0	0.0	0.0	0.0022394368839271095	-0.0	0.0	0.0	0.0	0.0	0.0	0.0	0.26219212147546006	0.0	0.0	0.0	-0.2897873710806045	0.0	0.0	0.0	0.0	0.0	0.0	0.0	0.0	0.0	-0.015939344519173268	0.0	0.0	-0.0	0.0	-0.20417031454077755	0.0	0.0	-0.17590930996577983	-0.007956117886661248	0.0	0.0	0.0	0.0	0.0	0.0	0.0	0.0	0.054157061340637386	0.15151219767552893	0.0	-0.6792705470714747	0.0	-0.0011259926580866036	-0.0	0.0	0.0	-0.0	0.0	0.0	0.0	0.0	0.0	0.0025225577144463046	0.0055024188276919786	-0.0	0.0	0.0	0.0	0.0	0.0	0.0	-0.03537557563537433	0.0	0.0	-0.0	0.0	-0.001254873777939264	0.0	0.0	0.0	0.0	0.0	0.0	0.0	0.0	0.0	0.0	-0.0	0.0	0.0	0.0	0.0	-0.0	0.0021005240172702762	0.0	0.0	0.0
ENSG00000172487	0.0	0.0	0.0	0.28731898381796284	0.0	0.0	0.0	0.0	-0.002081365035981352	0.0	0.0	0.0	0.0	0.0	-1.4100355298312463E-5	0.0	7.231815945207199E-4	0.0	0.0	0.0	0.0	0.0	0.0	0.0	0.0	0.0	0.0	0.0	0.0	0.0	0.0011641012327150248	0.0	0.0	0.0	0.0	0.0	0.0	0.0	0.0	0.0	0.003736720776770773	0.0	0.0	0.0	0.0	0.0	-0.022045412492404007	0.0	0.0	0.0	0.0	-0.03490206520002206	0.0	0.21148835995243404	0.0	0.0	0.0	0.0	0.0	0.0	0.0	-0.0	0.0	0.0	0.0	0.0	0.0	0.0	0.0	0.0	0.22727953376487936	0.0	0.0	0.0	0.04029421609203941	0.0	0.0	-0.016130206465522674	0.0	0.0	0.008580578784452097	0.0	0.0	9.883775933682034E-4	0.0	0.0	0.0	0.0	0.0	0.0	0.0	0.007569260277186105	0.0	0.0	0.0	-0.0	0.0	0.10331664396374082	0.0	-0.0	0.0	0.0	0.0	0.0	0.0	0.0	0.007313173036554647	0.0	0.0	0.0	0.0	0.0	0.0	0.0	-0.0	-0.0	0.0	0.0	0.0	0.0	-0.0	0.0	0.0	0.0	0.020615809516182745	-0.033235325823990504	0.0	0.0	0.11223023946984742	0.0	0.0	0.0	0.0	0.0	0.0	-0.47627042784721707	0.0	0.0	0.0	-0.08758237597144626	0.044243870971187434	0.0	0.0	0.0	0.0	0.0	0.0	0.0	0.0	0.0	0.0	0.0	0.0	0.18803839083865698	0.0	0.0	0.0	0.0	0.0	0.0	-0.028747491529164632	-0.0	0.0	0.0	0.0	0.0	0.0	0.0	-0.42511926653034576	0.0	0.0	0.0	0.5730174981604977	0.0	0.0	0.0	0.0	0.0	0.0	0.0	0.0	0.0	-3.570493192537073E-4	0.0	0.0	-0.0	0.0	-0.03798127405751608	0.0	0.0	0.046644011487957326	-0.006158198574926198	0.0	0.0	0.0	0.0	0.0	0.0	0.0	0.0	0.002926008359137179	-0.022104099734375417	0.0	0.07938919039939714	0.0	-5.916750254549631E-4	-0.0	0.0	0.0	-0.0	0.0	0.0	0.0	0.0	0.0	7.434306074046655E-4	-0.004539349954199415	-0.0	0.0	0.0	0.0	0.0	0.0	0.0	0.01646344358327274	0.0	0.0	-0.0	0.0	8.725267269495502E-4	0.0	0.0	0.0	0.0	0.0	0.0	0.0	0.0	0.0	0.0	-0.0	0.0	0.0	0.0	0.0	-0.0	7.205411942334549E-5	0.0	0.0	0.0
ENSG00000174937	0.0	0.0	0.0	0.27202255709511325	0.0	0.0	0.0	0.0	-0.002071795542229516	0.0	0.0	0.0	0.0	0.0	9.826199233266809E-4	0.0	0.0038846959859144057	0.0	0.0	0.0	0.0	0.0	0.0	0.0	0.0	0.0	0.0	0.0	0.0	0.0	-9.781372702509505E-4	0.0	0.0	0.0	0.0	0.0	0.0	0.0	0.0	0.0	-0.010725058154308914	0.0	0.0	0.0	0.0	0.0	-0.004869529114699958	0.0	0.0	0.0	0.0	-0.07356986800129763	0.0	0.33127635824845153	0.0	0.0	0.0	0.0	0.0	0.0	0.0	-0.0	0.0	0.0	0.0	0.0	0.0	0.0	0.0	0.0	-0.20407558840661885	0.0	0.0	0.0	-0.02305924446149718	0.0	0.0	0.010731736554075517	0.0	0.0	0.01715506301674984	0.0	0.0	0.013544043911829649	0.0	0.0	0.0	0.0	0.0	0.0	0.0	0.020247213421408353	0.0	0.0	0.0	-0.0	0.0	0.3008411782379167	0.0	-0.0	0.0	0.0	0.0	0.0	0.0	0.0	0.014764148012002251	0.0	0.0	0.0	0.0	0.0	0.0	0.0	-0.0	-0.0	0.0	0.0	0.0	0.0	-0.0	0.0	0.0	0.0	-0.028276912933082064	-0.003163319129001599	0.0	0.0	-0.16122248990476745	0.0	0.0	0.0	0.0	0.0	0.0	0.1566827240175659	0.0	0.0	0.0	0.026405235462757564	0.0037490702070870946	0.0	0.0	0.0	0.0	0.0	0.0	0.0	0.0	0.0	0.0	0.0	0.0	0.0878856166930802	0.0	0.0	0.0	0.0	0.0	0.0	0.00775444822888024	-0.0	0.0	0.0	0.0	0.0	0.0	0.0	-0.5280993804158922	0.0	0.0	0.0	-0.4750920954493046	0.0	0.0	0.0	0.0	0.0	0.0	0.0	0.0	0.0	0.009428150730337068	0.0	0.0	-0.0	0.0	0.3210422280599777	0.0	0.0	0.09080868115073414	0.01066429090427138	0.0	0.0	0.0	0.0	0.0	0.0	0.0	0.0	-0.010155644295718809	0.00503853213290779	0.0	-0.0043375810675346845	0.0	-8.10068797854793E-5	-0.0	0.0	0.0	-0.0	0.0	0.0	0.0	0.0	0.0	0.008234172388167578	6.844055674880367E-4	-0.0	0.0	0.0	0.0	0.0	0.0	0.0	0.02443976197504421	0.0	0.0	-0.0	0.0	-0.001981307800274307	0.0	0.0	0.0	0.0	0.0	0.0	0.0	0.0	0.0	0.0	-0.0	0.0	0.0	0.0	0.0	-0.0	2.1441761491264607E-5	0.0	0.0	0.0
ENSG00000255223	0.0	0.0	0.0	0.24653087495228806	0.0	0.0	0.0	0.0	-3.385172764148498E-4	0.0	0.0	0.0	0.0	0.0	0.002314558717165034	0.0	0.003808575657664274	0.0	0.0	0.0	0.0	0.0	0.0	0.0	0.0	0.0	0.0	0.0	0.0	0.0	0.0011508692911319455	0.0	0.0	0.0	0.0	0.0	0.0	0.0	0.0	0.0	-0.013565840741477387	0.0	0.0	0.0	0.0	0.0	-0.0030209764473720026	0.0	0.0	0.0	0.0	-0.08432121023344782	0.0	0.32988185902251804	0.0	0.0	0.0	0.0	0.0	0.0	0.0	-0.0	0.0	0.0	0.0	0.0	0.0	0.0	0.0	0.0	-0.34945384517433914	0.0	0.0	0.0	-0.049536809992767876	0.0	0.0	0.01655977475436043	0.0	0.0	0.01207923042289758	0.0	0.0	0.021341444855292296	0.0	0.0	0.0	0.0	0.0	0.0	0.0	0.034422516991078934	0.0	0.0	0.0	-0.0	0.0	0.36496015561316847	0.0	-0.0	0.0	0.0	0.0	0.0	0.0	0.0	0.005889066085338537	0.0	0.0	0.0	0.0	0.0	0.0	0.0	-0.0	-0.0	0.0	0.0	0.0	0.0	-0.0	0.0	0.0	0.0	0.008569809250650678	0.0038143955577091505	0.0	0.0	-0.2839360820029636	0.0	0.0	0.0	0.0	0.0	0.0	0.221511514322348	0.0	0.0	0.0	0.04228549495816702	-0.03356937056744846	0.0	0.0	0.0	0.0	0.0	0.0	0.0	0.0	0.0	0.0	0.0	0.0	-0.35499928523427177	0.0	0.0	0.0	0.0	0.0	0.0	0.0028952440838665573	-0.0	0.0	0.0	0.0	0.0	0.0	0.0	0.27237755685292514	0.0	0.0	0.0	0.3984269367210858	0.0	0.0	0.0	0.0	0.0	0.0	0.0	0.0	0.0	-0.01617512789771525	0.0	0.0	-0.0	0.0	-0.22543284917568762	0.0	0.0	-0.11930706317564657	-0.01257417135606227	0.0	0.0	0.0	0.0	0.0	0.0	0.0	0.0	0.01168438425736983	0.008410194271446826	0.0	-0.07623160189965948	0.0	-0.0033046841488908727	-0.0	0.0	0.0	-0.0	0.0	0.0	0.0	0.0	0.0	-0.005847053158862552	0.0035878299607250163	-0.0	0.0	0.0	0.0	0.0	0.0	0.0	-0.0024688656454702265	0.0	0.0	-0.0	0.0	2.2989591488129733E-4	0.0	0.0	0.0	0.0	0.0	0.0	0.0	0.0	0.0	0.0	-0.0	0.0	0.0	0.0	0.0	-0.0	8.076972622508968E-5	0.0	0.0	0.0
ENSG00000172457	0.0	0.0	0.0	0.16146597068672716	0.0	0.0	0.0	0.0	-9.520057011252189E-4	0.0	0.0	0.0	0.0	0.0	-2.7487197513822857E-4	0.0	2.9993049889186164E-4	0.0	0.0	0.0	0.0	0.0	0.0	0.0	0.0	0.0	0.0	0.0	0.0	0.0	0.007190918330016959	0.0	0.0	0.0	0.0	0.0	0.0	0.0	0.0	0.0	-0.013155179660444993	0.0	0.0	0.0	0.0	0.0	0.011429926266634718	0.0	0.0	0.0	0.0	-0.0808824012987333	0.0	0.30821601682787214	0.0	0.0	0.0	0.0	0.0	0.0	0.0	-0.0	0.0	0.0	0.0	0.0	0.0	0.0	0.0	0.0	-0.5716624275049783	0.0	0.0	0.0	-0.0806196934673686	0.0	0.0	0.028354278767916158	0.0	0.0	-0.021363929246872634	0.0	0.0	-0.060823874402244654	0.0	0.0	0.0	0.0	0.0	0.0	0.0	-0.05272580877931136	0.0	0.0	0.0	-0.0	0.0	-0.6819737470324999	0.0	-0.0	0.0	0.0	0.0	0.0	0.0	0.0	-0.0401400204059139	0.0	0.0	0.0	0.0	0.0	0.0	0.0	-0.0	-0.0	0.0	0.0	0.0	0.0	-0.0	0.0	0.0	0.0	0.017384142649294665	0.0140631990222558	0.0	0.0	0.10503333699670588	0.0	0.0	0.0	0.0	0.0	0.0	-0.19181902895907318	0.0	0.0	0.0	-0.02239357219978926	0.009519117969334778	0.0	0.0	0.0	0.0	0.0	0.0	0.0	0.0	0.0	0.0	0.0	0.0	0.08912827757113953	0.0	0.0	0.0	0.0	0.0	0.0	0.006468140905565696	-0.0	0.0	0.0	0.0	0.0	0.0	0.0	0.0682552727088566	0.0	0.0	0.0	-0.007213173490319481	0.0	0.0	0.0	0.0	0.0	0.0	0.0	0.0	0.0	0.005310756853942933	0.0	0.0	-0.0	0.0	0.028831791066523525	0.0	0.0	0.013363576459200636	0.0052178299822431325	0.0	0.0	0.0	0.0	0.0	0.0	0.0	0.0	-0.0032487005738025725	-0.008724304209291923	0.0	0.0341114290993743	0.0	0.005103198020499245	-0.0	0.0	0.0	-0.0	0.0	0.0	0.0	0.0	0.0	-0.0033017268126117622	0.0013437330110686624	-0.0	0.0	0.0	0.0	0.0	0.0	0.0	-0.018074635864907526	0.0	0.0	-0.0	0.0	4.100172323770878E-4	0.0	0.0	0.0	0.0	0.0	0.0	0.0	0.0	0.0	0.0	-0.0	0.0	0.0	0.0	0.0	-0.0	-3.200153921294843E-4	0.0	0.0	0.0
ENSG00000168056	0.0	0.0	0.0	-0.0015222671201726434	0.0	0.0	0.0	0.0	0.05586314914839588	0.0	0.0	0.0	0.0	0.0	-0.2260233158404139	0.0	0.026349379219198086	0.0	0.0	0.0	0.0	0.0	0.0	0.0	0.0	0.0	0.0	0.0	0.0	0.0	0.20823953579397855	0.0	0.0	0.0	0.0	0.0	0.0	0.0	0.0	0.0	-0.04208493925356378	0.0	0.0	0.0	0.0	0.0	0.5107429326694037	0.0	0.0	0.0	0.0	-0.17280816243072336	0.0	-0.015532576500718574	0.0	0.0	0.0	0.0	0.0	0.0	0.0	-0.0	0.0	0.0	0.0	0.0	0.0	0.0	0.0	0.0	0.02953661618668145	0.0	0.0	0.0	-0.04610619138277102	0.0	0.0	0.09715530791174447	0.0	0.0	-0.16056917801988904	0.0	0.0	-0.012006281785071278	0.0	0.0	0.0	0.0	0.0	0.0	0.0	0.0885416870040488	0.0	0.0	0.0	-0.0	0.0	-0.010863263681430048	0.0	-0.0	0.0	0.0	0.0	0.0	0.0	0.0	-0.04217406773843624	0.0	0.0	0.0	0.0	0.0	0.0	0.0	-0.0	-0.0	0.0	0.0	0.0	0.0	-0.0	0.0	0.0	0.0	-0.110800387078434	-0.7013693669681283	0.0	0.0	0.01084952843789471	0.0	0.0	0.0	0.0	0.0	0.0	0.03816218727313967	0.0	0.0	0.0	-0.027887752897785712	-0.05704216234616979	0.0	0.0	0.0	0.0	0.0	0.0	0.0	0.0	0.0	0.0	0.0	0.0	0.01550771416982982	0.0	0.0	0.0	0.0	0.0	0.0	0.06375455487276944	-0.0	0.0	0.0	0.0	0.0	0.0	0.0	0.00257049145978892	0.0	0.0	0.0	0.007311636294604285	0.0	0.0	0.0	0.0	0.0	0.0	0.0	0.0	0.0	0.0082625548120106	0.0	0.0	-0.0	0.0	0.001968243193204081	0.0	0.0	-0.00787580719158759	0.020176399686917937	0.0	0.0	0.0	0.0	0.0	0.0	0.0	0.0	-0.010048216858608284	-0.016321246518028493	0.0	0.0014785014450523941	0.0	-0.010102111416135663	-0.0	0.0	0.0	-0.0	0.0	0.0	0.0	0.0	0.0	-0.21135930783153323	0.031918912610136914	-0.0	0.0	0.0	0.0	0.0	0.0	0.0	0.004145227077240314	0.0	0.0	-0.0	0.0	0.00321553111195544	0.0	0.0	0.0	0.0	0.0	0.0	0.0	0.0	0.0	0.0	-0.0	0.0	0.0	0.0	0.0	-0.0	5.839435007826831E-4	0.0	0.0	0.0
ENSG00000173442	0.0	0.0	0.0	-7.040895050212392E-4	0.0	0.0	0.0	0.0	0.08266799587765176	0.0	0.0	0.0	0.0	0.0	-0.3365432049628754	0.0	0.04943971387444971	0.0	0.0	0.0	0.0	0.0	0.0	0.0	0.0	0.0	0.0	0.0	0.0	0.0	0.26004546540202345	0.0	0.0	0.0	0.0	0.0	0.0	0.0	0.0	0.0	-0.0368703771458666	0.0	0.0	0.0	0.0	0.0	0.4151266607299261	0.0	0.0	0.0	0.0	-0.11784145967654096	0.0	-0.005450647748869542	0.0	0.0	0.0	0.0	0.0	0.0	0.0	-0.0	0.0	0.0	0.0	0.0	0.0	0.0	0.0	0.0	0.027278440084883674	0.0	0.0	0.0	-0.010924691792464507	0.0	0.0	0.036920434874807874	0.0	0.0	-0.03323738290149265	0.0	0.0	0.004594090400132477	0.0	0.0	0.0	0.0	0.0	0.0	0.0	-0.007887390348990971	0.0	0.0	0.0	-0.0	0.0	0.007215074781584699	0.0	-0.0	0.0	0.0	0.0	0.0	0.0	0.0	0.02748696423586048	0.0	0.0	0.0	0.0	0.0	0.0	0.0	-0.0	-0.0	0.0	0.0	0.0	0.0	-0.0	0.0	0.0	0.0	0.054077852178472	0.2981111536692209	0.0	0.0	-0.00831722988211402	0.0	0.0	0.0	0.0	0.0	0.0	-0.02054556402446236	0.0	0.0	0.0	0.009091254330367367	0.013361332274351467	0.0	0.0	0.0	0.0	0.0	0.0	0.0	0.0	0.0	0.0	0.0	0.0	-0.011997214556134124	0.0	0.0	0.0	0.0	0.0	0.0	-0.11042215442269598	-0.0	0.0	0.0	0.0	0.0	0.0	0.0	0.0011573251828799404	0.0	0.0	0.0	-0.0010677411194282642	0.0	0.0	0.0	0.0	0.0	0.0	0.0	0.0	0.0	-0.014429282842676302	0.0	0.0	-0.0	0.0	-0.0024072750315079876	0.0	0.0	0.00493764926686297	-0.012820253274651345	0.0	0.0	0.0	0.0	0.0	0.0	0.0	0.0	0.03659127833223558	0.033399847708840975	0.0	0.005471362655252405	0.0	0.026483482082472233	-0.0	0.0	0.0	-0.0	0.0	0.0	0.0	0.0	0.0	0.7062619879457044	-0.1008706293820275	-0.0	0.0	0.0	0.0	0.0	0.0	0.0	-0.014481930295052054	0.0	0.0	-0.0	0.0	-0.018454233326218074	0.0	0.0	0.0	0.0	0.0	0.0	0.0	0.0	0.0	0.0	-0.0	0.0	0.0	0.0	0.0	-0.0	0.0013609595668383576	0.0	0.0	0.0
ENSG00000173327	0.0	0.0	0.0	0.0018255956544482922	0.0	0.0	0.0	0.0	0.09297263975921789	0.0	0.0	0.0	0.0	0.0	-0.3788592553696279	0.0	0.05717312984727802	0.0	0.0	0.0	0.0	0.0	0.0	0.0	0.0	0.0	0.0	0.0	0.0	0.0	0.24749339595082637	0.0	0.0	0.0	0.0	0.0	0.0	0.0	0.0	0.0	-0.023660174399064572	0.0	0.0	0.0	0.0	0.0	0.22748016847678804	0.0	0.0	0.0	0.0	-0.04236304104168003	0.0	6.878793002029327E-4	0.0	0.0	0.0	0.0	0.0	0.0	0.0	-0.0	0.0	0.0	0.0	0.0	0.0	0.0	0.0	0.0	0.01717478792880123	0.0	0.0	0.0	0.019601264069658397	0.0	0.0	-0.01657225407533631	0.0	0.0	0.08140030766210818	0.0	0.0	0.0124908927591113	0.0	0.0	0.0	0.0	0.0	0.0	0.0	-0.06776233143038131	0.0	0.0	0.0	-0.0	0.0	0.017677700142698295	0.0	-0.0	0.0	0.0	0.0	0.0	0.0	0.0	0.042751855945277556	0.0	0.0	0.0	0.0	0.0	0.0	0.0	-0.0	-0.0	0.0	0.0	0.0	0.0	-0.0	0.0	0.0	0.0	0.08801074803257075	0.5265387867698256	0.0	0.0	-0.01469751412484778	0.0	0.0	0.0	0.0	0.0	0.0	-0.03820340708303424	0.0	0.0	0.0	0.01957192488395985	0.04987007843259976	0.0	0.0	0.0	0.0	0.0	0.0	0.0	0.0	0.0	0.0	0.0	0.0	-0.006133548109353911	0.0	0.0	0.0	0.0	0.0	0.0	-0.015559405706682322	-0.0	0.0	0.0	0.0	0.0	0.0	0.0	-0.004374637265619578	0.0	0.0	0.0	-0.00999138959444198	0.0	0.0	0.0	0.0	0.0	0.0	0.0	0.0	0.0	0.013288580109730804	0.0	0.0	-0.0	0.0	0.002194524954786631	0.0	0.0	8.759406490238895E-4	0.006736919598353665	0.0	0.0	0.0	0.0	0.0	0.0	0.0	0.0	-0.032671677369034084	-0.025219135457565392	0.0	-0.01231322851428014	0.0	-0.019168420300818518	-0.0	0.0	0.0	-0.0	0.0	0.0	0.0	0.0	0.0	-0.6435942930871964	0.08808423058969757	-0.0	0.0	0.0	0.0	0.0	0.0	0.0	0.011741217464391704	0.0	0.0	-0.0	0.0	0.01498723058305557	0.0	0.0	0.0	0.0	0.0	0.0	0.0	0.0	0.0	0.0	-0.0	0.0	0.0	0.0	0.0	-0.0	-0.0029153746678430245	0.0	0.0	0.0
ENSG00000172977	0.0	0.0	0.0	0.004555162864663048	0.0	0.0	0.0	0.0	0.09738004215779966	0.0	0.0	0.0	0.0	0.0	-0.385055220280072	0.0	0.057115032977285325	0.0	0.0	0.0	0.0	0.0	0.0	0.0	0.0	0.0	0.0	0.0	0.0	0.0	0.15222705686254606	0.0	0.0	0.0	0.0	0.0	0.0	0.0	0.0	0.0	0.017475182300840292	0.0	0.0	0.0	0.0	0.0	-0.30100498271958165	0.0	0.0	0.0	0.0	0.1557167463952243	0.0	0.012601102640093785	0.0	0.0	0.0	0.0	0.0	0.0	0.0	-0.0	0.0	0.0	0.0	0.0	0.0	0.0	0.0	0.0	-0.03508242476704596	0.0	0.0	0.0	0.07719894982637995	0.0	0.0	-0.12056015324744813	0.0	0.0	0.25495992976787285	0.0	0.0	0.015538497179513805	0.0	0.0	0.0	0.0	0.0	0.0	0.0	-0.08541183047544458	0.0	0.0	0.0	-0.0	0.0	-0.008286606045192043	0.0	-0.0	0.0	0.0	0.0	0.0	0.0	0.0	2.346484294307612E-4	0.0	0.0	0.0	0.0	0.0	0.0	0.0	-0.0	-0.0	0.0	0.0	0.0	0.0	-0.0	0.0	0.0	0.0	-0.026802865000194742	-0.16960842475263307	0.0	0.0	0.005906724127607771	0.0	0.0	0.0	0.0	0.0	0.0	0.02082329213845149	0.0	0.0	0.0	0.0043801603702713614	0.012593162340646946	0.0	0.0	0.0	0.0	0.0	0.0	0.0	0.0	0.0	0.0	0.0	0.0	0.009576637029214786	0.0	0.0	0.0	0.0	0.0	0.0	0.2700771603447366	-0.0	0.0	0.0	0.0	0.0	0.0	0.0	9.07095863820528E-4	0.0	0.0	0.0	0.012684194823106568	0.0	0.0	0.0	0.0	0.0	0.0	0.0	0.0	0.0	0.004483226133364322	0.0	0.0	-0.0	0.0	-9.883345297191462E-4	0.0	0.0	0.0015022819434934076	0.00890177245769242	0.0	0.0	0.0	0.0	0.0	0.0	0.0	0.0	-0.0011533230804127487	-7.449690070870844E-4	0.0	-9.696285776673618E-4	0.0	-2.1202936471898304E-4	-0.0	0.0	0.0	-0.0	0.0	0.0	0.0	0.0	0.0	0.08514340920447933	-0.01221086867131733	-0.0	0.0	0.0	0.0	0.0	0.0	0.0	-0.0012511803300662404	0.0	0.0	-0.0	0.0	-0.0032206786412171833	0.0	0.0	0.0	0.0	0.0	0.0	0.0	0.0	0.0	0.0	-0.0	0.0	0.0	0.0	0.0	-0.0	-0.7037755247388394	0.0	0.0	0.0
ENSG00000172922	0.0	0.0	0.0	0.004487315697883774	0.0	0.0	0.0	0.0	0.09760890567880619	0.0	0.0	0.0	0.0	0.0	-0.38592927688937745	0.0	0.05725023738745539	0.0	0.0	0.0	0.0	0.0	0.0	0.0	0.0	0.0	0.0	0.0	0.0	0.0	0.1510824215786197	0.0	0.0	0.0	0.0	0.0	0.0	0.0	0.0	0.0	0.017676843605659544	0.0	0.0	0.0	0.0	0.0	-0.3016997313803716	0.0	0.0	0.0	0.0	0.15572710962076328	0.0	0.01238415923522792	0.0	0.0	0.0	0.0	0.0	0.0	0.0	-0.0	0.0	0.0	0.0	0.0	0.0	0.0	0.0	0.0	-0.035329736151389665	0.0	0.0	0.0	0.07645711218369713	0.0	0.0	-0.11925027346948178	0.0	0.0	0.2538954263656834	0.0	0.0	0.014759343731739948	0.0	0.0	0.0	0.0	0.0	0.0	0.0	-0.08334087744014587	0.0	0.0	0.0	-0.0	0.0	-0.008892755913476026	0.0	-0.0	0.0	0.0	0.0	0.0	0.0	0.0	-9.970718949251682E-4	0.0	0.0	0.0	0.0	0.0	0.0	0.0	-0.0	-0.0	0.0	0.0	0.0	0.0	-0.0	0.0	0.0	0.0	-0.02630836535950588	-0.16768518713568423	0.0	0.0	0.004569569012080523	0.0	0.0	0.0	0.0	0.0	0.0	0.02066250370317505	0.0	0.0	0.0	0.004832304546679315	0.010137991735968634	0.0	0.0	0.0	0.0	0.0	0.0	0.0	0.0	0.0	0.0	0.0	0.0	0.009800877584017154	0.0	0.0	0.0	0.0	0.0	0.0	0.2565412593013173	-0.0	0.0	0.0	0.0	0.0	0.0	0.0	8.658752707767955E-4	0.0	0.0	0.0	0.011942888280477985	0.0	0.0	0.0	0.0	0.0	0.0	0.0	0.0	0.0	0.004848236547695198	0.0	0.0	-0.0	0.0	-0.001363416841095429	0.0	0.0	-1.6891755855676763E-4	0.009648039908813749	0.0	0.0	0.0	0.0	0.0	0.0	0.0	0.0	0.005017167152616976	0.0016641929425119178	0.0	0.004313206119039822	0.0	-0.0012202877114989182	-0.0	0.0	0.0	-0.0	0.0	0.0	0.0	0.0	0.0	0.07977187451914425	-0.011233325172375491	-0.0	0.0	0.0	0.0	0.0	0.0	0.0	0.0024840002763096454	0.0	0.0	-0.0	0.0	0.0019885942862243604	0.0	0.0	0.0	0.0	0.0	0.0	0.0	0.0	0.0	0.0	-0.0	0.0	0.0	0.0	0.0	-0.0	0.710312132637193	0.0	0.0	0.0
ENSG00000172818	0.0	0.0	0.0	0.0019579270802683583	0.0	0.0	0.0	0.0	0.10487028092694087	0.0	0.0	0.0	0.0	0.0	-0.363054574424624	0.0	0.05496697866534727	0.0	0.0	0.0	0.0	0.0	0.0	0.0	0.0	0.0	0.0	0.0	0.0	0.0	-0.02368519024349069	0.0	0.0	0.0	0.0	0.0	0.0	0.0	0.0	0.0	0.025444645055190944	0.0	0.0	0.0	0.0	0.0	-0.34880893627920584	0.0	0.0	0.0	0.0	0.06354486366111575	0.0	-0.002902942950545124	0.0	0.0	0.0	0.0	0.0	0.0	0.0	-0.0	0.0	0.0	0.0	0.0	0.0	0.0	0.0	0.0	-0.014491597740646709	0.0	0.0	0.0	-0.03432494853886259	0.0	0.0	0.06398256011027363	0.0	0.0	-0.19719051751742142	0.0	0.0	-0.022485711605870887	0.0	0.0	0.0	0.0	0.0	0.0	0.0	0.13739589137923788	0.0	0.0	0.0	-0.0	0.0	-0.013420059612539519	0.0	-0.0	0.0	0.0	0.0	0.0	0.0	0.0	-0.02166300674707108	0.0	0.0	0.0	0.0	0.0	0.0	0.0	-0.0	-0.0	0.0	0.0	0.0	0.0	-0.0	0.0	0.0	0.0	-0.009270146700636887	-0.126636750564167	0.0	0.0	-0.005861709481744538	0.0	0.0	0.0	0.0	0.0	0.0	0.005888675806581515	0.0	0.0	0.0	-0.03840183550863392	-0.09155134125490912	0.0	0.0	0.0	0.0	0.0	0.0	0.0	0.0	0.0	0.0	0.0	0.0	-0.027373632275842105	0.0	0.0	0.0	0.0	0.0	0.0	-0.7948290656627165	-0.0	0.0	0.0	0.0	0.0	0.0	0.0	5.107420671110411E-4	0.0	0.0	0.0	-0.025902072098712387	0.0	0.0	0.0	0.0	0.0	0.0	0.0	0.0	0.0	-0.01769054462754193	0.0	0.0	-0.0	0.0	0.0035669866082009235	0.0	0.0	6.138329751898161E-4	-0.031250501311417524	0.0	0.0	0.0	0.0	0.0	0.0	0.0	0.0	0.01475748380942511	0.01051049531993554	0.0	0.0036727585638729418	0.0	0.0014568276807895874	-0.0	0.0	0.0	-0.0	0.0	0.0	0.0	0.0	0.0	-0.04270187217981876	0.008340294468896158	-0.0	0.0	0.0	0.0	0.0	0.0	0.0	-0.0013787563880349604	0.0	0.0	-0.0	0.0	0.0027106835900703387	0.0	0.0	0.0	0.0	0.0	0.0	0.0	0.0	0.0	0.0	-0.0	0.0	0.0	0.0	0.0	-0.0	-0.008748217968641983	0.0	0.0	0.0
ENSG00000172732	0.0	0.0	0.0	0.0018450201475684925	0.0	0.0	0.0	0.0	0.08562093190789552	0.0	0.0	0.0	0.0	0.0	-0.24574695973047858	0.0	0.028081066708915935	0.0	0.0	0.0	0.0	0.0	0.0	0.0	0.0	0.0	0.0	0.0	0.0	0.0	-0.15259610931996778	0.0	0.0	0.0	0.0	0.0	0.0	0.0	0.0	0.0	0.01838380114798143	0.0	0.0	0.0	0.0	0.0	-0.22490712494642573	0.0	0.0	0.0	0.0	-0.04137453725254532	0.0	-0.02157017759081317	0.0	0.0	0.0	0.0	0.0	0.0	0.0	-0.0	0.0	0.0	0.0	0.0	0.0	0.0	0.0	0.0	0.018024560946521617	0.0	0.0	0.0	-0.1509291090300928	0.0	0.0	0.23390271330382387	0.0	0.0	-0.6372999302918463	0.0	0.0	-0.034047648885144124	0.0	0.0	0.0	0.0	0.0	0.0	0.0	0.3774453186015822	0.0	0.0	0.0	-0.0	0.0	0.01312898138009375	0.0	-0.0	0.0	0.0	0.0	0.0	0.0	0.0	-0.012805842786305014	0.0	0.0	0.0	0.0	0.0	0.0	0.0	-0.0	-0.0	0.0	0.0	0.0	0.0	-0.0	0.0	0.0	0.0	0.03955225949619063	0.15481219693275705	0.0	0.0	0.012541211966015665	0.0	0.0	0.0	0.0	0.0	0.0	-0.016322671839725883	0.0	0.0	0.0	0.021435970218812612	0.001382496522456566	0.0	0.0	0.0	0.0	0.0	0.0	0.0	0.0	0.0	0.0	0.0	0.0	0.021147750622279898	0.0	0.0	0.0	0.0	0.0	0.0	0.4466497122839028	-0.0	0.0	0.0	0.0	0.0	0.0	0.0	-0.010294922713275406	0.0	0.0	0.0	0.010777908106146426	0.0	0.0	0.0	0.0	0.0	0.0	0.0	0.0	0.0	3.729097829255837E-4	0.0	0.0	-0.0	0.0	0.0012069432527703277	0.0	0.0	-1.2860900549390133E-4	0.01667811225415994	0.0	0.0	0.0	0.0	0.0	0.0	0.0	0.0	0.009065955117461642	-0.0036149669938712733	0.0	0.00439590272738555	0.0	-1.976995325985734E-4	-0.0	0.0	0.0	-0.0	0.0	0.0	0.0	0.0	0.0	0.01371627000033614	-0.0017330013455067715	-0.0	0.0	0.0	0.0	0.0	0.0	0.0	-7.137579685112109E-4	0.0	0.0	-0.0	0.0	0.0014028466607365802	0.0	0.0	0.0	0.0	0.0	0.0	0.0	0.0	0.0	0.0	-0.0	0.0	0.0	0.0	0.0	-0.0	0.002292397348861703	0.0	0.0	0.0
ENSG00000175467	0.0	0.0	0.0	-8.17257181517411E-4	0.0	0.0	0.0	0.0	0.0779573766401644	0.0	0.0	0.0	0.0	0.0	-0.21206370068777963	0.0	0.029267729612920044	0.0	0.0	0.0	0.0	0.0	0.0	0.0	0.0	0.0	0.0	0.0	0.0	0.0	-0.47688856430244275	0.0	0.0	0.0	0.0	0.0	0.0	0.0	0.0	0.0	0.014937770997394424	0.0	0.0	0.0	0.0	0.0	0.03029836918255832	0.0	0.0	0.0	0.0	-0.24776828285145167	0.0	-0.03662802488846325	0.0	0.0	0.0	0.0	0.0	0.0	0.0	-0.0	0.0	0.0	0.0	0.0	0.0	0.0	0.0	0.0	0.014934627846692269	0.0	0.0	0.0	-0.002034495296498595	0.0	0.0	-3.1206235667037906E-5	0.0	0.0	-0.08519787341534497	0.0	0.0	-0.012468289342413338	0.0	0.0	0.0	0.0	0.0	0.0	0.0	-0.48132695808428977	0.0	0.0	0.0	-0.0	0.0	0.02540436925294554	0.0	-0.0	0.0	0.0	0.0	0.0	0.0	0.0	0.13180084181554105	0.0	0.0	0.0	0.0	0.0	0.0	0.0	-0.0	-0.0	0.0	0.0	0.0	0.0	-0.0	0.0	0.0	0.0	-0.019651800470793786	-0.034558422134403646	0.0	0.0	0.00333884668571642	0.0	0.0	0.0	0.0	0.0	0.0	0.013384296413805688	0.0	0.0	0.0	-0.009564366632451353	0.10227130606950215	0.0	0.0	0.0	0.0	0.0	0.0	0.0	0.0	0.0	0.0	0.0	0.0	-0.010073883354073658	0.0	0.0	0.0	0.0	0.0	0.0	0.001193962235370883	-0.0	0.0	0.0	0.0	0.0	0.0	0.0	0.006525948151398624	0.0	0.0	0.0	0.010646693217971084	0.0	0.0	0.0	0.0	0.0	0.0	0.0	0.0	0.0	0.025283936329765586	0.0	0.0	-0.0	0.0	3.3883919763012376E-4	0.0	0.0	0.006876901193725478	0.018925208011044067	0.0	0.0	0.0	0.0	0.0	0.0	0.0	0.0	-0.527252913046245	-0.28233532702985514	0.0	-0.10602315689656186	0.0	-0.11800410474332276	-0.0	0.0	0.0	-0.0	0.0	0.0	0.0	0.0	0.0	0.05173006910553425	0.002706839200856486	-0.0	0.0	0.0	0.0	0.0	0.0	0.0	0.0028305070018761597	0.0	0.0	-0.0	0.0	0.01614921050077369	0.0	0.0	0.0	0.0	0.0	0.0	0.0	0.0	0.0	0.0	-0.0	0.0	0.0	0.0	0.0	-0.0	0.0037085854137720933	0.0	0.0	0.0
ENSG00000175376	0.0	0.0	0.0	-0.002557316069619622	0.0	0.0	0.0	0.0	0.08779379347323232	0.0	0.0	0.0	0.0	0.0	-0.20921224545264264	0.0	0.03107613560393271	0.0	0.0	0.0	0.0	0.0	0.0	0.0	0.0	0.0	0.0	0.0	0.0	0.0	-0.5341276361740076	0.0	0.0	0.0	0.0	0.0	0.0	0.0	0.0	0.0	0.022313806781976944	0.0	0.0	0.0	0.0	0.0	0.09474074307727398	0.0	0.0	0.0	0.0	-0.22671574888617213	0.0	-0.03174192985613941	0.0	0.0	0.0	0.0	0.0	0.0	0.0	-0.0	0.0	0.0	0.0	0.0	0.0	0.0	0.0	0.0	0.004210590073199294	0.0	0.0	0.0	0.03962890122754445	0.0	0.0	-0.047901581399410566	0.0	0.0	0.08232128331620953	0.0	0.0	-0.00448119484601132	0.0	0.0	0.0	0.0	0.0	0.0	0.0	-0.20688764192383324	0.0	0.0	0.0	-0.0	0.0	0.009631635794190076	0.0	-0.0	0.0	0.0	0.0	0.0	0.0	0.0	0.023868088497717467	0.0	0.0	0.0	0.0	0.0	0.0	0.0	-0.0	-0.0	0.0	0.0	0.0	0.0	-0.0	0.0	0.0	0.0	0.0099977709652002	-0.013259982352678125	0.0	0.0	0.0029278167349759904	0.0	0.0	0.0	0.0	0.0	0.0	-0.003810479687722006	0.0	0.0	0.0	0.014640505171414193	-0.05981091343715991	0.0	0.0	0.0	0.0	0.0	0.0	0.0	0.0	0.0	0.0	0.0	0.0	-0.0033605454896616744	0.0	0.0	0.0	0.0	0.0	0.0	0.032771825796796904	-0.0	0.0	0.0	0.0	0.0	0.0	0.0	-0.001712788848692087	0.0	0.0	0.0	-0.00601826535726067	0.0	0.0	0.0	0.0	0.0	0.0	0.0	0.0	0.0	-0.017817757455315636	0.0	0.0	-0.0	0.0	0.002493754980553249	0.0	0.0	-0.006335019312448273	-0.0160332922702607	0.0	0.0	0.0	0.0	0.0	0.0	0.0	0.0	0.6258574781266358	0.33383684273488706	0.0	0.12665253218106542	0.0	0.13606615874464387	-0.0	0.0	0.0	-0.0	0.0	0.0	0.0	0.0	0.0	-0.049716393895002015	-0.0047351068193296625	-0.0	0.0	0.0	0.0	0.0	0.0	0.0	3.854126489154076E-4	0.0	0.0	-0.0	0.0	-0.0137433205262802	0.0	0.0	0.0	0.0	0.0	0.0	0.0	0.0	0.0	0.0	-0.0	0.0	0.0	0.0	0.0	-0.0	-0.003671740335786373	0.0	0.0	0.0
ENSG00000175229	0.0	0.0	0.0	0.0011937482200479117	0.0	0.0	0.0	0.0	0.08088512948507903	0.0	0.0	0.0	0.0	0.0	-0.1170134177518744	0.0	0.0225227092051487	0.0	0.0	0.0	0.0	0.0	0.0	0.0	0.0	0.0	0.0	0.0	0.0	0.0	-0.40683873548774163	0.0	0.0	0.0	0.0	0.0	0.0	0.0	0.0	0.0	0.0279580621019362	0.0	0.0	0.0	0.0	0.0	0.18816435121833877	0.0	0.0	0.0	0.0	-0.008446384034889913	0.0	0.005449996987324516	0.0	0.0	0.0	0.0	0.0	0.0	0.0	-0.0	0.0	0.0	0.0	0.0	0.0	0.0	0.0	0.0	-0.006859012487193922	0.0	0.0	0.0	0.10873762527915008	0.0	0.0	-0.12262256104375986	0.0	0.0	0.40765850449300306	0.0	0.0	0.02749214237536715	0.0	0.0	0.0	0.0	0.0	0.0	0.0	0.6241270878838687	0.0	0.0	0.0	-0.0	0.0	-0.05311565715953311	0.0	-0.0	0.0	0.0	0.0	0.0	0.0	0.0	-0.23820911137891657	0.0	0.0	0.0	0.0	0.0	0.0	0.0	-0.0	-0.0	0.0	0.0	0.0	0.0	-0.0	0.0	0.0	0.0	0.05384598162818564	0.048017888888940555	0.0	0.0	-0.004400576633232662	0.0	0.0	0.0	0.0	0.0	0.0	-0.02394638071233483	0.0	0.0	0.0	0.03223968988803346	-0.24102402211564913	0.0	0.0	0.0	0.0	0.0	0.0	0.0	0.0	0.0	0.0	0.0	0.0	0.01970069593962595	0.0	0.0	0.0	0.0	0.0	0.0	0.005037615946711535	-0.0	0.0	0.0	0.0	0.0	0.0	0.0	5.99302335468296E-5	0.0	0.0	0.0	-0.00389235226052974	0.0	0.0	0.0	0.0	0.0	0.0	0.0	0.0	0.0	-0.0034430964724200454	0.0	0.0	-0.0	0.0	-0.0024913052610406627	0.0	0.0	0.0031899611564540713	-0.006780052896175744	0.0	0.0	0.0	0.0	0.0	0.0	0.0	0.0	-0.22429456443784015	-0.11883031567825202	0.0	-0.04370226484209057	0.0	-0.049599111575255365	-0.0	0.0	0.0	-0.0	0.0	0.0	0.0	0.0	0.0	0.01606019117249316	1.0807435129183564E-4	-0.0	0.0	0.0	0.0	0.0	0.0	0.0	-9.364777951444697E-4	0.0	0.0	-0.0	0.0	0.0035080307364613434	0.0	0.0	0.0	0.0	0.0	0.0	0.0	0.0	0.0	0.0	-0.0	0.0	0.0	0.0	0.0	-0.0	-8.992086492243138E-5	0.0	0.0	0.0
ENSG00000179292	0.0	0.0	0.0	-4.525616266873778E-4	0.0	0.0	0.0	0.0	0.16122306308709572	0.0	0.0	0.0	0.0	0.0	-0.030743988926464835	0.0	0.05075816785597688	0.0	0.0	0.0	0.0	0.0	0.0	0.0	0.0	0.0	0.0	0.0	0.0	0.0	-0.23066375643188813	0.0	0.0	0.0	0.0	0.0	0.0	0.0	0.0	0.0	0.035393342477298015	0.0	0.0	0.0	0.0	0.0	0.24323238173454187	0.0	0.0	0.0	0.0	0.5753344343486474	0.0	0.13094209048478486	0.0	0.0	0.0	0.0	0.0	0.0	0.0	-0.0	0.0	0.0	0.0	0.0	0.0	0.0	0.0	0.0	-0.015797538316627	0.0	0.0	0.0	3.320386942809008E-4	0.0	0.0	0.04378132023109679	0.0	0.0	-0.007034818394042709	0.0	0.0	-0.015995169261050986	0.0	0.0	0.0	0.0	0.0	0.0	0.0	0.1214228720578914	0.0	0.0	0.0	-0.0	0.0	-0.021638110696615035	0.0	-0.0	0.0	0.0	0.0	0.0	0.0	0.0	0.1661385042305508	0.0	0.0	0.0	0.0	0.0	0.0	0.0	-0.0	-0.0	0.0	0.0	0.0	0.0	-0.0	0.0	0.0	0.0	-0.09578748839778826	-0.03641981812973242	0.0	0.0	0.011190747305452766	0.0	0.0	0.0	0.0	0.0	0.0	0.05616328967456458	0.0	0.0	0.0	-0.11365413280966835	0.6539676194105555	0.0	0.0	0.0	0.0	0.0	0.0	0.0	0.0	0.0	0.0	0.0	0.0	-0.05425830243431417	0.0	0.0	0.0	0.0	0.0	0.0	-0.052792826993146365	-0.0	0.0	0.0	0.0	0.0	0.0	0.0	0.007953014172569753	0.0	0.0	0.0	0.004583670122495831	0.0	0.0	0.0	0.0	0.0	0.0	0.0	0.0	0.0	0.014561750303920101	0.0	0.0	-0.0	0.0	0.0057299808828289575	0.0	0.0	-0.007893881442326542	0.02834704359667935	0.0	0.0	0.0	0.0	0.0	0.0	0.0	0.0	0.04264063456922145	0.012379406870513563	0.0	0.006537522299145417	0.0	0.010106019033479489	-0.0	0.0	0.0	-0.0	0.0	0.0	0.0	0.0	0.0	-0.0013211988562690272	-0.0021645480151065316	-0.0	0.0	0.0	0.0	0.0	0.0	0.0	-0.0014640174389944365	0.0	0.0	-0.0	0.0	7.961689308153632E-4	0.0	0.0	0.0	0.0	0.0	0.0	0.0	0.0	0.0	0.0	-0.0	0.0	0.0	0.0	0.0	-0.0	3.181797563197367E-4	0.0	0.0	0.0
ENSG00000255468	0.0	0.0	0.0	-4.061427690562817E-4	0.0	0.0	0.0	0.0	0.18108462884193297	0.0	0.0	0.0	0.0	0.0	0.03603431695357721	0.0	0.07721291379590972	0.0	0.0	0.0	0.0	0.0	0.0	0.0	0.0	0.0	0.0	0.0	0.0	0.0	-0.08971920852265818	0.0	0.0	0.0	0.0	0.0	0.0	0.0	0.0	0.0	0.03896022195365766	0.0	0.0	0.0	0.0	0.0	0.19607570614311715	0.0	0.0	0.0	0.0	0.5954843583662708	0.0	0.13802719102102604	0.0	0.0	0.0	0.0	0.0	0.0	0.0	-0.0	0.0	0.0	0.0	0.0	0.0	0.0	0.0	0.0	-0.008915225631111861	0.0	0.0	0.0	-0.011026599100311996	0.0	0.0	0.08162893116552077	0.0	0.0	-0.15439721436155707	0.0	0.0	-0.03202139193373229	0.0	0.0	0.0	0.0	0.0	0.0	0.0	-0.25932827108675705	0.0	0.0	0.0	-0.0	0.0	0.04125372614271328	0.0	-0.0	0.0	0.0	0.0	0.0	0.0	0.0	0.06342210912344547	0.0	0.0	0.0	0.0	0.0	0.0	0.0	-0.0	-0.0	0.0	0.0	0.0	0.0	-0.0	0.0	0.0	0.0	0.12679895611085962	0.007938661840588846	0.0	0.0	0.015225973820516126	0.0	0.0	0.0	0.0	0.0	0.0	-0.0472834407424428	0.0	0.0	0.0	0.13028144763559701	-0.6251428241607603	0.0	0.0	0.0	0.0	0.0	0.0	0.0	0.0	0.0	0.0	0.0	0.0	0.0487258565488612	0.0	0.0	0.0	0.0	0.0	0.0	0.0389797345899924	-0.0	0.0	0.0	0.0	0.0	0.0	0.0	-0.002595911654470011	0.0	0.0	0.0	0.002933624464353679	0.0	0.0	0.0	0.0	0.0	0.0	0.0	0.0	0.0	0.002825857464632224	0.0	0.0	-0.0	0.0	-0.0025527977745006276	0.0	0.0	0.004884689437215189	-0.04903004204885802	0.0	0.0	0.0	0.0	0.0	0.0	0.0	0.0	-0.024656903349048166	-0.010797874624167317	0.0	-0.005553953649039487	0.0	-0.0024020750387335316	-0.0	0.0	0.0	-0.0	0.0	0.0	0.0	0.0	0.0	-0.002335831269126371	8.408018143456701E-4	-0.0	0.0	0.0	0.0	0.0	0.0	0.0	0.00103772125999708	0.0	0.0	-0.0	0.0	-0.008535709989191731	0.0	0.0	0.0	0.0	0.0	0.0	0.0	0.0	0.0	0.0	-0.0	0.0	0.0	0.0	0.0	-0.0	-3.553723357668559E-4	0.0	0.0	0.0
